1280 100
리스크 -0.040544037 0.047765497 0.02267459 0.01381606 0.0005131938 -0.12487762 0.04920763 0.15476182 -0.07565075 -0.035800297 0.010562607 -0.0735609 -0.003040023 0.039123237 0.015995424 -0.05152833 0.013734915 -0.049652275 -0.032209553 -0.14722653 0.033108223 0.034674916 0.04933508 -0.028014893 -0.017198931 -0.021403918 -0.03379562 -0.039652187 -0.0697427 0.024832789 0.04756991 -0.009682365 0.068572335 -0.042479422 -0.035277613 0.092571266 0.013697486 -0.05950347 -0.033223342 -0.110231124 0.0012031477 -0.03271829 -0.027264569 0.0021214574 0.056727253 0.009932963 -0.06378663 -0.009198406 0.047544077 0.0318801 0.0144308405 -0.041449193 -0.028151417 0.011263195 -0.022034846 0.024075773 0.019102897 -0.011435144 -0.07935949 0.04728914 0.0071533755 0.018669471 -0.012676866 -0.050502714 -0.08403357 0.049012832 0.04209126 0.044481166 -0.10356993 0.08851549 -0.028722707 0.020120269 0.05153312 -0.026050702 0.076485194 0.038975377 0.024253465 -0.02492987 -0.062013056 0.014859876 -0.03656773 -0.008670177 -0.058877345 0.084275976 -0.044970725 0.0017001864 0.0016130708 0.055505443 0.092849016 0.027391942 0.073920995 0.033773664 0.0046334905 -0.007831781 0.10551846 0.042790852 0.029486576 -0.06922573 0.015612824 -0.01226993
관리 -0.043073658 0.04550349 0.020028874 0.009532182 0.015857691 -0.10896395 0.038475413 0.13283655 -0.06441947 -0.033931497 0.0022393179 -0.07121271 -0.0048160874 0.035760406 0.021630226 -0.036003802 0.016135458 -0.03642219 -0.024519872 -0.120160066 0.02536554 0.02185952 0.045255944 -0.03514939 -0.013174297 -0.012137659 -0.03380772 -0.035449676 -0.05565257 0.031817477 0.057844862 -0.01285055 0.050295293 -0.03712208 -0.02548706 0.08586989 0.01226756 -0.039906617 -0.019115517 -0.082979344 0.017885119 -0.0407915 -0.02600541 0.005946926 0.0467888 0.01644524 -0.043081015 -0.018019743 0.03867373 0.020552082 0.027628865 -0.049433812 -0.020118304 0.0118020205 -0.02685745 0.033266127 0.021766791 0.0022761046 -0.066349305 0.040829007 -0.0005533194 0.018859167 -0.012520428 -0.042514816 -0.06805747 0.046783924 0.04463413 0.028361818 -0.07996101 0.08194242 -0.034361877 0.0008802756 0.050367393 -0.007926508 0.06207174 0.027527524 0.007514743 -0.02345502 -0.045456227 0.016929861 -0.04034069 -0.005546095 -0.051366933 0.060672037 -0.032693204 -0.001759544 -0.0037462756 0.042046674 0.085525975 0.013096654 0.06393404 0.02787642 0.0040511605 -0.014670506 0.080528975 0.035810173 0.039274093 -0.056348015 0.002855734 -0.011432965
전략 -0.018785495 0.025265373 0.0007907222 0.0009201148 0.012952455 -0.047178008 0.0156021165 0.069894224 -0.041583434 -0.008585437 -0.0040021166 -0.036922418 0.010212823 0.01603403 0.01776945 -0.029403025 0.010041717 -0.014315762 -0.019639237 -0.06923058 0.0047572367 0.009593757 0.016531836 -0.022311205 -0.0025872698 -0.013273998 -0.006542099 -0.015285233 -0.035517942 0.017189745 0.030888155 -0.011570021 0.018574553 -0.018632486 -0.02436777 0.042291004 0.0027379142 -0.020498289 -0.014346051 -0.048637513 -0.00036105904 -0.015738389 -0.010360511 0.010070862 0.02969698 0.0099928845 -0.024822041 -0.0116423005 0.015061424 0.009509631 0.0117553165 -0.02453605 -0.018101735 -0.0025963236 -0.023256857 0.007861598 0.005166408 -0.0068064015 -0.04104842 0.013776119 0.00805297 0.004115872 0.004341992 -0.018090343 -0.04546842 0.03140017 0.027201131 0.023259815 -0.052830435 0.046036333 -0.011858446 0.010726552 0.029100815 -0.005879239 0.029973192 0.026518308 0.017791795 -0.007270922 -0.029796747 0.010942877 -0.015543944 -0.014019981 -0.037878435 0.035312254 -0.017039891 -0.0059977374 -0.007084977 0.020020653 0.053266365 0.009546174 0.028929885 0.021432323 0.010511352 -0.00800582 0.052263714 0.023789037 0.023913326 -0.027843764 0.015767153 -0.015495317
위험 -0.050076276 0.059925243 0.01975375 0.004208455 0.014285097 -0.12783735 0.047159217 0.16211142 -0.06722039 -0.04270279 0.013288332 -0.070376396 0.007398905 0.027163899 0.03157124 -0.056309894 0.021829538 -0.06125478 -0.03458001 -0.13740021 0.029003592 0.028759263 0.05421394 -0.021441285 -0.036288403 -0.015191284 -0.028725192 -0.045099217 -0.06361163 0.03207894 0.059154708 -0.01475231 0.054551024 -0.038535926 -0.030480364 0.11045763 0.014774506 -0.06353974 -0.044193104 -0.102781124 0.015492359 -0.033988807 -0.012199757 0.004339185 0.06811728 0.012447301 -0.056954846 -0.02422732 0.04178054 0.019814223 0.029421529 -0.048670612 -0.036070496 0.0012342676 -0.037782393 0.03170047 0.017059669 0.004770662 -0.07512787 0.033045456 0.0101038655 0.025027262 -0.0012218297 -0.047318757 -0.08383244 0.04503409 0.04435029 0.04876432 -0.109509654 0.081401646 -0.03247085 0.00897997 0.05375281 -0.006487768 0.07385887 0.036105156 0.0133040445 -0.018329134 -0.070212215 0.02736109 -0.042874556 -0.0061936327 -0.06406203 0.085603476 -0.04420756 -0.002175739 0.0036723881 0.069210246 0.09696751 0.010846871 0.07082653 0.033824507 -0.00036790932 -0.011097921 0.11170689 0.039799456 0.047324277 -0.0743127 0.011294551 -0.025232991
기업 -0.03732631 0.03714937 0.0061389655 0.00076727284 0.010494112 -0.081258 0.031679656 0.11014213 -0.05592715 -0.016607884 -0.004265557 -0.047920868 -0.007463414 0.026120825 0.011288072 -0.0416788 0.0057648844 -0.032469157 -0.01161541 -0.106115215 0.01942438 0.013883218 0.04027682 -0.0117704375 -0.020654835 -0.011973814 -0.024164563 -0.028702961 -0.054488435 0.021874562 0.047555637 -0.0054054596 0.043504752 -0.034759365 -0.015897015 0.06464899 0.0014672064 -0.035835333 -0.02471768 -0.0766028 0.0103578875 -0.034872275 -0.023499334 0.013569496 0.048078332 0.00042405957 -0.038730733 -0.014201808 0.03600802 0.008305444 0.021412449 -0.030520428 -0.0069930046 0.003153323 -0.023386171 0.014720199 0.0011482495 -0.013142504 -0.057084944 0.019969234 0.011233662 0.0072239623 -0.003549256 -0.03215871 -0.064520724 0.034019046 0.0417445 0.037745927 -0.07965812 0.073060885 -0.03260335 0.0148943085 0.034831755 -0.00876013 0.056285173 0.03669037 0.009443786 -0.008724355 -0.036901236 0.0077184523 -0.034508538 -0.016019573 -0.044267476 0.055193726 -0.036209658 -0.008071415 0.004547813 0.04657276 0.060067445 0.010052299 0.0576701 0.02047602 0.0057909247 -0.010259682 0.07433481 0.020457678 0.035773296 -0.041698903 0.010662276 -0.01110238
도입 -0.029574947 0.02712653 0.008522627 -0.007099344 -0.004627201 -0.06332245 0.026643641 0.08072193 -0.043946307 -0.023883037 -0.004209274 -0.04037331 -0.0069160983 0.007720891 0.008153091 -0.035333578 0.00042254012 -0.034309078 -0.0142268 -0.073748775 0.004426795 0.015049475 0.030690271 -0.0075264703 -0.02031614 -0.012805231 -0.014455824 -0.033591088 -0.031484477 0.02239417 0.035591085 -0.014004983 0.02479044 -0.027811877 -0.017643671 0.05952201 0.009588068 -0.022512838 -0.012585261 -0.058656126 0.01622327 -0.028262435 -0.018068826 0.0015925134 0.029598122 0.0019755203 -0.031095881 -0.0024457828 0.021097118 0.009661253 0.015606591 -0.033651356 -0.0035276392 0.014119732 -0.025542023 0.018553797 0.017569927 -0.010936711 -0.047483157 0.01082644 0.013447269 0.009161309 0.0058324276 -0.0314389 -0.03930386 0.028386 0.02386254 0.022493562 -0.060904164 0.035734106 -0.016627684 0.01307545 0.035693858 -0.0029474543 0.03700101 0.029816955 -0.0009403327 -0.008478073 -0.030356403 0.016159553 -0.011301134 -0.013225016 -0.028298208 0.031155175 -0.021449128 -0.009882155 -0.0071853325 0.041145585 0.048280742 0.0139038805 0.048351664 0.027358284 -0.00802391 -0.0073009445 0.06142703 0.025715815 0.019981276 -0.04160064 0.0107223885 -0.016537942
평가 -0.01439743 0.023276094 0.009173969 0.0031045037 0.0052917744 -0.06755727 0.0309654 0.08533148 -0.043700337 -0.019981276 0.008382476 -0.0397541 0.0004617938 0.027743822 0.006924725 -0.029887587 0.016351841 -0.022668488 -0.0121248625 -0.08836039 0.015967773 0.0149308015 0.034730423 -0.015326437 -0.012405255 -0.007481954 -0.020734206 -0.031426728 -0.035938676 0.014375392 0.038923446 0.0034148365 0.032980867 -0.017403742 -0.025214024 0.057075296 -0.003807815 -0.04036762 -0.024843983 -0.070965044 0.013853208 -0.027527837 -0.0021001245 -0.003875122 0.036424294 0.015149759 -0.040098272 -0.02152735 0.019837301 0.009319605 0.012936895 -0.03586875 -0.022783268 0.0083321985 -0.025624704 0.008376759 0.006597578 -0.011031095 -0.050744303 0.013033212 0.005303564 0.006044691 0.0018107287 -0.023682516 -0.05129105 0.03406425 0.018977793 0.017164402 -0.06581682 0.046146538 -0.02257217 0.01329923 0.02741973 -0.004164043 0.04935518 0.014908822 0.014676239 -0.007620939 -0.0384513 0.019969318 -0.014707638 -0.012478184 -0.04418584 0.048377942 -0.02454581 -0.006169476 0.007187886 0.030056061 0.04822292 0.011801508 0.039945412 0.01972481 -0.0033801857 -0.0051440503 0.05475161 0.02232472 0.031421416 -0.042222794 0.005784241 -0.0051699984
조직 -0.012689545 0.021599116 0.018660538 0.010879915 0.0007668895 -0.06428853 0.028172232 0.07565921 -0.043778636 -0.024110604 0.0013658452 -0.038915806 0.0051027383 0.015794983 0.010797814 -0.024192981 0.010850815 -0.027569627 -0.01948729 -0.083712935 0.014461512 0.022211792 0.024239857 -0.025519442 -0.020917386 -0.0033593012 -0.02125156 -0.018973669 -0.04019448 0.023871845 0.02377635 -0.0010913032 0.030409465 -0.025853978 -0.02144778 0.05028411 -0.0020035123 -0.03086438 -0.02533978 -0.05586452 0.014889083 -0.023004292 -0.011686452 0.00747707 0.040071 -0.0009418501 -0.037373796 -0.013622914 0.032650024 0.0124672735 0.0034368348 -0.026051542 -0.0030297413 -0.002132534 -0.0219663 0.025506593 -0.0011960577 0.0013462921 -0.041343946 0.027728695 0.014419659 0.0075413426 -0.0093428185 -0.0146891475 -0.042950567 0.032046616 0.013773511 0.030591834 -0.056337263 0.04046717 -0.016405389 0.006544934 0.03365041 -0.010957481 0.034378286 0.02291017 0.018242784 -0.018645799 -0.029905567 0.0047789537 -0.025860567 -0.0063272663 -0.043999378 0.045328297 -0.01993073 -0.0022081826 0.003536306 0.042059395 0.059874844 0.008555749 0.041239318 0.014333106 -0.008217861 0.0022482057 0.050850533 0.019656999 0.01908106 -0.03893299 0.011831897 -0.014095539
위험관리 -0.037127174 0.04265467 0.01641359 0.012715224 0.012868536 -0.07981964 0.03976589 0.09863503 -0.05537698 -0.018393194 0.0054493085 -0.05588307 0.011462212 0.018567732 0.024882104 -0.034392864 0.0018210437 -0.038807344 -0.024161492 -0.09907917 0.019862838 0.030109687 0.039852973 -0.027514705 -0.014033361 -0.009447562 -0.02497284 -0.04207845 -0.041797303 0.011418518 0.045710765 -0.012150487 0.046095077 -0.014338893 -0.023086786 0.07124195 0.0021502078 -0.030605033 -0.019748904 -0.084202975 0.00508065 -0.022462752 -0.013444525 0.0032949618 0.039510414 0.0040175105 -0.038191337 -0.010178075 0.02553669 0.01113995 0.016590944 -0.03208351 -0.016684381 0.002096647 -0.01774748 0.018382855 0.012500598 -0.002854926 -0.04718221 0.018398825 0.0007608584 0.008774163 0.0037171072 -0.032174353 -0.0685632 0.032875787 0.025253082 0.033821054 -0.08104939 0.06377282 -0.034779057 0.009310721 0.042682867 -0.003587387 0.042880636 0.020712275 0.0052534505 -0.02428937 -0.05286451 0.014967336 -0.025689675 -0.015033838 -0.039164115 0.056620732 -0.0214035 0.0016487613 -0.0011877026 0.0356543 0.06275009 0.017606245 0.046062123 0.025065722 0.003713441 -0.0062482073 0.07842514 0.0358415 0.029907929 -0.036992267 0.015174408 -0.01845253
개요 -0.019489238 0.009616473 -0.0029209685 0.010793545 0.0014940584 -0.047273003 0.0094782105 0.055614166 -0.029198255 -0.014589353 0.002323597 -0.027628092 -0.0013258202 0.0127591565 0.004579095 -0.00860083 0.007882133 -0.028327575 -0.0016892683 -0.05451158 0.009393343 0.014465599 0.009165814 -0.011348963 0.000766824 -0.010362057 -0.020113388 -0.005198964 -0.023872094 0.004969674 0.027695805 0.0011256278 0.024242738 -0.0026076494 -0.02001832 0.038795747 0.0043388926 -0.013075571 -0.009819119 -0.031183597 0.008773029 -0.0065827193 -0.011056862 -0.0021482394 0.018260049 0.0061390833 -0.022544833 -2.5696563e-06 0.01862095 0.016255183 0.01058183 -0.0070436685 -0.00918435 0.012397388 -0.0070958245 0.0009271649 0.0009675298 -0.004289568 -0.02181298 0.012176086 -0.00028664456 0.01437715 0.006918543 -0.016644306 -0.033717684 0.011355478 0.0102652265 0.0036095774 -0.03357551 0.0247236 -0.00895444 0.010675086 0.014084673 -0.015140076 0.026827345 0.0064277994 0.008098734 -0.012048091 -0.011818922 0.008227921 -0.008747091 -0.007119018 -0.023299744 0.03407132 -0.012480712 -0.0070073777 -0.008996603 0.022250136 0.04033674 0.013717996 0.016286891 0.02122774 0.005622316 0.0056527928 0.044548023 0.005562344 0.0031517153 -0.015357705 0.015368491 -0.0021275058
재무 -0.012519954 0.02264954 0.017346077 -0.006933015 -0.0034460465 -0.06677381 0.01777075 0.07973928 -0.03923192 -0.02519387 0.010739612 -0.040136725 0.010487834 0.01144784 0.015092504 -0.021093758 0.00820175 -0.029344337 -0.009367315 -0.07785461 0.01074056 0.012615437 0.029445572 -0.01895449 -0.018781202 -0.004540988 -0.017114036 -0.027830811 -0.024434313 0.018847616 0.024102466 -0.0039979317 0.03943835 -0.010258908 -0.010220874 0.05344107 0.0052106963 -0.029691841 -0.023339802 -0.054727405 0.003975859 -0.020014713 -0.015349457 0.011256307 0.022668615 -0.002820126 -0.031297196 -0.011649541 0.013495982 0.011118507 0.0068089357 -0.024859805 -0.020462215 0.0072251805 -0.012632686 0.01496709 0.0017047386 -0.0043903897 -0.031362485 0.022043679 -0.003934017 0.0060361824 -0.0020844254 -0.01973302 -0.052318852 0.028963849 0.013064084 0.012469749 -0.04827093 0.04055914 -0.014501831 0.014702787 0.023012206 0.001655799 0.039208326 0.029706841 0.014343678 -0.02143011 -0.034950502 0.019576961 -0.012615985 0.0029801044 -0.025971523 0.047384493 -0.029903818 0.004823858 -0.0073570646 0.034228217 0.05369781 0.014435603 0.04514329 0.018252708 -0.0011011221 0.0019255285 0.043482713 0.019732999 0.029722154 -0.037558794 0.01086518 -0.018316051
사업 -0.010310777 0.03273658 0.011004046 0.0072537144 0.0063089393 -0.06720559 0.020495532 0.082334176 -0.04032706 -0.020666638 0.0068596154 -0.03457373 -0.00081863644 0.013785561 0.01658009 -0.03176382 0.0025448855 -0.03317692 -0.016665233 -0.07929181 0.008537215 0.006156802 0.02357339 -0.023618178 -0.022893036 -0.016736187 -0.023112418 -0.01730992 -0.02814786 0.015669392 0.026171057 -0.01217471 0.031020014 -0.0177438 -0.01647043 0.049855307 0.0039811097 -0.028502593 -0.024866646 -0.061324373 -0.002753469 -0.021551764 -0.007805017 0.010772329 0.0274057 0.0021429516 -0.019659467 -0.010110146 0.019645207 0.019695943 0.015184506 -0.02929481 -0.0052730325 0.009789481 -0.022879062 0.014883439 0.008602438 0.0030574803 -0.041152682 0.016267948 0.00713348 0.010551626 -0.0034966848 -0.025202509 -0.048910953 0.03186439 0.030584441 0.028466498 -0.061155457 0.047758013 -0.021951687 0.015745606 0.029392028 -0.0035522336 0.04009993 0.026703449 0.0030496242 -0.0040366845 -0.033294354 0.0083118 -0.020542825 0.004629864 -0.039968558 0.038287178 -0.013424993 0.00039366356 -0.008497073 0.025009101 0.05685563 0.016430622 0.042660024 0.014207855 -0.008679783 -8.73095e-05 0.05675608 0.013669686 0.012718238 -0.03594925 0.0017286037 -0.01141291
대응 -0.01892467 0.014948495 0.01754311 -0.0076969187 0.00829017 -0.04600752 0.017399538 0.07263589 -0.020030148 -0.019698914 -0.0045133145 -0.03786662 -0.0074243774 0.010622062 0.003132864 -0.030052643 0.005385057 -0.020323081 -0.0042000343 -0.062308293 0.0061899815 0.014427473 0.018345809 -0.004041179 -0.010762424 -0.00019066266 -0.022739042 -0.011516763 -0.028708227 0.02106746 0.0165011 -0.002354791 0.026294963 -0.01495223 -0.019137425 0.032359146 -0.0043255687 -0.03125736 -0.012065596 -0.045703605 0.0030644692 -0.009674419 -0.010628716 0.0017613078 0.016138854 -0.0056713866 -0.015611467 -0.01429645 0.0114245545 0.01512594 0.017075475 -0.02738245 -0.009358994 -0.0018611401 -0.011783954 0.00896249 0.0034345083 6.6218614e-05 -0.024472615 0.022979982 -0.0058944747 0.0023456481 0.0042457017 -0.017005334 -0.040226985 0.021501852 0.028165163 0.015618429 -0.053247716 0.038864173 -0.009483985 0.012042137 0.026981553 -0.01285076 0.03148467 0.016664302 0.012036463 -0.018255655 -0.034160525 0.010644882 -0.024254667 0.0012021923 -0.028735455 0.044321075 -0.022671653 -0.00025113192 0.0061534047 0.02232887 0.035977263 0.010401508 0.034411576 0.012488778 0.0068828072 -0.010888146 0.04519854 0.016797697 0.02608763 -0.021575404 0.012541183 0.00016697677
대한 -0.029071655 0.032862738 0.000983629 -0.0011605262 -0.0004984035 -0.061694644 0.012618288 0.06311567 -0.03855352 -0.016716879 -0.003737101 -0.02863096 -0.008313248 0.010137511 0.019370047 -0.017397465 0.01335846 -0.020089425 -0.011139883 -0.0725475 0.018700527 0.017370367 0.028937852 -0.0073152464 -0.004174282 0.00084712065 -0.02612519 -0.029525254 -0.0284437 0.020402813 0.034575477 0.0010933257 0.036224004 -0.023058848 -0.009154054 0.0424183 -0.00641655 -0.016824124 -0.014747879 -0.054565944 0.0027693468 -0.023013256 -0.0044748196 0.007419231 0.024672618 -0.002708369 -0.031243907 -0.010045556 0.027130969 0.0075144786 0.010845814 -0.021591261 -0.01863795 0.0066589904 -0.015797032 0.016785635 0.0115205515 -0.004220673 -0.03985692 0.025299737 0.0097275665 0.014977951 0.00085295254 -0.012465947 -0.032912895 0.022051038 0.02961086 0.023317829 -0.04343775 0.041139927 -0.018976089 0.0010540247 0.016201658 -0.0044299695 0.044158805 0.028223556 0.0062877424 -0.0058407737 -0.024794333 0.007350272 -0.015172771 -0.010370327 -0.023476593 0.043131124 -0.015649913 0.004194538 0.0063486486 0.036535695 0.04449295 0.0026042315 0.04375228 0.023660678 0.003306913 -0.0052372576 0.04028634 0.014286569 0.027784197 -0.03379539 0.000539147 0.0012734184
경영 -0.014687164 0.036563702 0.011059913 -0.0057619303 0.0139794545 -0.069842644 0.029693775 0.08659298 -0.029393747 -0.02775201 0.011326962 -0.049429692 -0.0057730833 0.009103359 0.0066021583 -0.020527266 0.015369852 -0.03186976 -0.010138564 -0.080461405 0.022346627 0.022729376 0.023893503 -0.020049559 -0.020675467 -0.00498535 -0.016636094 -0.028785946 -0.02699262 0.012011857 0.021559525 -0.007980054 0.032812264 -0.026364053 -0.023780914 0.045432422 0.012392708 -0.022990404 -0.018834027 -0.05191625 0.014182346 -0.02183257 -0.0037681144 0.0068505 0.037370645 0.0119781075 -0.035983652 -0.013563585 0.024804002 0.016070312 0.016281113 -0.020597843 -0.009219284 -0.002468142 -0.020271203 0.00924864 0.01786273 0.0026835522 -0.04191845 0.024775531 -0.0023957738 0.0039076847 -0.0015670385 -0.01794151 -0.042669985 0.033280745 0.022504587 0.018066168 -0.05686741 0.045559715 -0.025058562 -0.0014001587 0.03553629 -0.0100425165 0.038029246 0.014138548 0.019383341 -0.012773923 -0.032126494 0.01593032 -0.027954692 -0.005010037 -0.033161487 0.035072464 -0.017310796 0.0027091086 0.0045314515 0.03894289 0.050077744 0.003882143 0.048187964 0.020554453 0.0057426477 0.0018983965 0.056375165 0.01562534 0.022374583 -0.026808176 0.001515279 -0.0008422296
수익 -0.020334678 0.019967752 0.007399539 0.00886906 -0.0013188592 -0.04225863 0.007476124 0.049643375 -0.027293213 -0.001950917 -0.0037286445 -0.032895837 -0.004013943 0.017044285 0.0007271067 -0.021116745 -0.003920228 -0.009889465 -0.0038642879 -0.04146558 0.0052611707 0.016126506 0.0072004953 -0.010985827 -0.013308928 -0.007305769 -0.012867919 -0.005625963 -0.020047007 0.00019361926 0.01180981 -0.010029039 0.021003906 -0.0014699158 -0.016783597 0.038830984 0.010935736 -0.024042571 -0.019935878 -0.023702053 0.011821412 -0.016637465 -0.013349488 0.009972902 0.021829162 0.01184473 -0.025676588 -0.0156000415 0.015205534 -0.002476482 0.002138911 -0.018477162 0.0017994627 0.011743391 -0.01269781 0.015243621 0.0135959275 -0.0037254344 -0.014736638 0.019737659 0.004041254 0.0016609222 -0.008056084 -0.0165999 -0.01873471 0.00901801 0.010725833 0.021600058 -0.028687684 0.03355439 -0.018931214 0.0031282236 0.022494985 -0.010143148 0.030349083 0.022078555 0.005222562 -0.009564448 -0.019430654 0.0016456885 -0.020109503 -0.0053766235 -0.022684485 0.029416714 -0.019693958 0.0055248863 -0.008509692 0.0111726895 0.039808005 0.015945641 0.019355323 0.014182001 -0.005044497 -0.011296462 0.025053196 0.019514434 0.0188307 -0.009858434 0.01237088 0.00076035457
발생 -0.017348168 0.012082921 0.013018732 0.0009326389 0.010711156 -0.05256421 0.016326599 0.07640888 -0.030683361 -0.014692303 -0.0035621445 -0.042287674 -0.006614519 0.023877328 0.00039024864 -0.01469426 -0.004740126 -0.023777887 -0.013661699 -0.07307201 0.020933094 0.020954818 0.022706565 -0.008035646 -0.011299148 0.0016502886 -0.0076532196 -0.03229114 -0.033366792 0.012376186 0.028696747 -0.008820573 0.02878815 -0.024187392 -0.012863927 0.04937424 0.00769857 -0.028546974 -0.023905823 -0.05930294 0.004435249 -0.025638245 -0.01600866 0.009254425 0.03370846 0.006634292 -0.034441743 -0.014828269 0.027896447 0.013797225 0.0053634886 -0.02946894 -0.009985734 0.007475003 -0.011773448 0.016795881 0.0010096288 -0.012659469 -0.043529883 0.017616361 0.009421326 0.013137839 -0.0020769208 -0.0152585665 -0.039235566 0.02611825 0.010466042 0.026009323 -0.041325297 0.046360306 -0.00930186 0.014130392 0.02460168 -0.009506509 0.03437235 0.009205642 0.017188553 -0.017744187 -0.0193535 0.006890279 -0.015572526 -0.0150311375 -0.040766872 0.028284887 -0.026454655 0.00018526326 -0.009827089 0.023589164 0.03854157 0.0044825394 0.041580155 0.020751026 0.00955766 0.0033538735 0.038147792 0.0251191 0.009098298 -0.032196205 -0.0007383864 -0.0043840543
방안 -0.007967886 0.020427061 0.007386946 -0.005272177 0.010655558 -0.038318925 0.020854441 0.04240437 -0.02370637 -0.013874323 -0.0035471178 -0.025667474 0.010905315 0.006611154 0.013616614 -0.023079554 0.0060664085 -0.015539841 0.0015720561 -0.046593953 0.014539932 0.002606674 0.005230745 -0.012752437 -0.009944993 -0.008165258 -0.012664314 -0.019420395 -0.015788216 0.0064615444 0.0138827115 0.0018090376 0.0070393947 -0.0125346705 -0.0040416117 0.034767058 -0.007747392 -0.007003166 -0.00380866 -0.032883115 0.012815448 -0.02028895 0.0013115776 0.0070625627 0.016354183 -0.0023224526 -0.019435076 -0.008745521 0.013068582 0.007871749 0.014119915 -0.0020271952 0.0026139873 -0.001152366 0.0019472367 0.0075752093 0.009249172 0.0015096014 -0.021128032 0.0130675705 -0.0034671854 -0.0006568301 -0.010313995 -0.009309132 -0.01500748 0.014033324 0.013210448 0.013239011 -0.018933889 0.015446558 -0.006718636 -0.004293756 0.018368639 0.0058442377 0.026791543 0.01702853 0.013263986 -7.733863e-05 -0.008141772 0.014735134 -0.014543147 0.006889435 -0.011761103 0.018671317 -0.0019843744 0.004740491 0.009263479 0.018479904 0.036020417 0.007004733 0.029365228 0.01250035 0.00765524 -0.0055610705 0.033031367 0.018151311 0.00862537 -0.018881721 0.007445934 -0.011735725
활동 -0.010525415 0.015810004 0.0029789323 0.0048931027 0.011629829 -0.0684421 0.025947884 0.08760661 -0.04375015 -0.023311786 -0.0034224144 -0.041508686 0.0027509984 0.026416795 0.017360816 -0.026395062 0.008906962 -0.018931577 -0.003468144 -0.06657015 0.020122752 0.008123084 0.019357253 -0.021448316 -0.0067574386 -0.011326591 -0.02614759 -0.017343845 -0.024461595 0.011973254 0.038481273 -0.005773241 0.027108314 -0.02016353 -0.017001329 0.046423998 0.0064344853 -0.02260011 -0.010780949 -0.06586092 0.0039235433 -0.026219934 -0.0018818822 0.009767036 0.026708055 0.0070373514 -0.03592123 -0.010745895 0.031913076 0.008356262 0.0070639183 -0.03252036 -0.01612866 0.0042913854 -0.012478667 0.025527842 0.004094601 -0.0005691982 -0.030515611 0.020510985 0.0064711845 0.019450683 0.00564678 -0.014872245 -0.050163373 0.035157382 0.029052926 0.029650996 -0.0559188 0.04910833 -0.011332582 0.0018505005 0.034421396 -0.006020139 0.04868733 0.017495433 0.0059998045 -0.006072989 -0.041259054 0.0049340944 -0.025782993 -0.0069530085 -0.03728395 0.0484865 -0.01113754 -0.0007627204 -0.00033532077 0.034218524 0.048265755 0.002697801 0.046987176 0.013264476 0.0058605857 0.0046813022 0.054264415 0.023307642 0.024849214 -0.03602974 0.01055051 -0.009054835
가지 -0.011880077 0.026841687 0.009720389 0.008701488 -0.005152339 -0.04531899 0.02778224 0.060001634 -0.02965333 -0.019697003 0.0022833534 -0.029242806 0.009506676 0.014580245 0.012606896 -0.021474998 0.013949729 -0.028910259 -0.016810376 -0.064018875 0.00901114 0.018034557 0.010568973 -0.015970925 -0.019194188 -0.0024600525 -0.017342145 -0.029687641 -0.023350198 0.021783903 0.021335877 -0.009899377 0.028556846 -0.015554748 -0.02488414 0.050882872 -0.0048310645 -0.028737064 -0.017633723 -0.05241007 0.006722335 -0.006968757 -0.0038037004 0.011034597 0.024679998 0.004749516 -0.02801484 -0.018027822 0.022236789 0.011274912 0.0008258345 -0.025426578 -0.02060809 -0.0014806046 -0.009086574 0.02219952 0.010809372 0.0005860233 -0.025293866 0.014839063 0.002916961 -0.00074061676 -0.0037561264 -0.021873064 -0.036944933 0.02834584 0.011489842 0.012808512 -0.051296998 0.035102423 -0.019003388 0.0069670724 0.026286462 -0.011619831 0.026990827 0.018884286 0.013360337 -0.005280674 -0.029892707 0.0060655316 -0.020985367 -0.005462284 -0.027119592 0.03609968 -0.010427311 -0.0025617701 -0.002296558 0.020775463 0.040685177 0.00095650804 0.030893316 0.01627238 -0.008315016 0.0053891446 0.03317013 0.0076621897 0.008529925 -0.020422325 0.012259718 0.00027965216
목표 -0.013698887 0.020862853 0.004774304 0.011859086 0.006690113 -0.043398682 0.015510054 0.060521014 -0.021861514 -0.014010054 0.0047395937 -0.029883593 0.00663359 0.01720692 0.012113883 -0.026138049 -0.0005030691 -0.016188154 -0.01541279 -0.05647142 0.010075333 0.016249655 0.008342548 -0.0023978376 -0.011803886 -0.012433576 -0.009541674 -0.021389704 -0.032918125 0.0075294278 0.021515459 -0.013260626 0.02426296 -0.011008322 -0.016501596 0.04182416 0.0048242062 -0.011524125 -0.011414266 -0.0414663 0.007923937 -0.017089963 -0.015936932 0.011322491 0.021500906 -0.005755043 -0.029436989 -0.012147351 0.02125094 0.0135646835 0.015996695 -0.025328103 -0.009387298 0.001609661 -0.016976975 0.019787952 0.009525793 -0.005160489 -0.03910877 0.009182166 0.0026006047 0.015981453 0.0019272009 -0.026341667 -0.04323055 0.026314722 0.01516114 0.011480391 -0.03508955 0.029367523 -0.009393965 0.004806549 0.013905822 -0.0069777016 0.035834912 0.026359558 0.009477228 -0.0045333924 -0.03003862 0.00908377 -0.019971611 -0.0035020816 -0.028038349 0.028400911 -0.024314772 0.010501984 0.00034686655 0.022218334 0.034307837 0.015850076 0.023387548 0.016561242 0.0010011514 0.0055856155 0.046639115 0.011878285 0.018951835 -0.027703788 -0.0044293157 -0.010143388
요인 -0.014746023 0.02710123 0.019102816 0.011926487 -0.0044696257 -0.042183056 0.0112707475 0.06061749 -0.0286805 -0.0064792736 0.005882453 -0.025139472 0.0114496015 0.014191192 0.0019492649 -0.028462399 0.010979603 -0.027564045 -0.01329482 -0.052902862 0.008034561 0.005757697 0.014975992 -0.0104330545 -0.008581424 -0.0006898227 -0.018809486 -0.015426357 -0.018587438 0.015348085 0.028598271 -0.009656484 0.03157713 -0.021712527 -0.009040879 0.030709967 -0.00044229376 -0.032245863 -0.015304024 -0.0502424 0.00048515323 -0.013867734 -0.005221039 0.00102805 0.0151492795 -0.0015551103 -0.023083413 -0.012477971 0.0075918348 0.008309776 0.01750281 -0.013190264 -0.021041662 0.007648374 -0.019182965 0.0030428725 0.0066639455 -0.0033230863 -0.040027242 0.008310279 0.0004067191 0.015371619 -0.01170956 -0.010846201 -0.03492623 0.020179398 0.028858056 0.021184873 -0.046574812 0.040110372 -0.011694093 0.012302123 0.021487918 -0.012302621 0.03160668 0.010409567 0.008587954 -0.004932973 -0.019468233 0.020221619 -0.022913054 -0.009774795 -0.019701788 0.034419972 -0.02413707 0.0019044498 -0.00050502847 0.023151826 0.03426092 0.013704592 0.04111126 0.0062907552 0.00077994686 -0.0062965574 0.033909187 0.013728559 0.010371027 -0.016316852 0.00012733371 -0.0037196155
방법론 -0.0061738836 0.011354445 0.0043074014 0.010149018 0.0020654805 -0.022383938 0.004314393 0.022536334 -0.013841485 -0.012043576 -0.0055462224 -0.017225789 0.0065895906 0.0090232575 0.011372544 -0.0003047419 -0.004164881 -0.004214567 0.0056317947 -0.018523306 0.006610939 0.0100634815 -0.0021731483 0.005316221 0.0033221773 0.0059196954 -0.013459953 0.00015372747 -0.0024078307 0.002261042 0.002399867 0.0038944203 0.0011765797 -0.010437039 -0.00166619 0.02194417 0.00950213 -0.011610584 -0.01427045 -0.0051704976 0.00793379 -0.0092176525 -0.011860861 -0.0041487315 0.0038985887 -0.0012812417 -0.0077173067 -0.0026302272 0.0029145258 -0.0027221881 0.012392141 -0.01149447 -0.010204794 0.00912668 -0.0015596632 0.012721905 -0.002607012 -0.008039505 -0.01004019 0.004000551 -0.008380252 0.00039566495 0.0019909916 0.0006688868 -0.004513697 0.01011078 0.0019747282 0.0035920513 -0.018314984 0.018520199 -0.011297717 0.003850175 0.0055055534 -0.008064848 0.0031768153 0.012242067 -0.0063118106 -0.0043987273 -0.004991889 0.010790024 -0.012428784 0.0013553561 0.0006603493 0.0040252116 -0.009097441 0.0047230506 0.0044010724 0.009362646 0.021596756 0.0040865815 0.012411118 0.0031888387 -0.007591187 0.0021328088 0.015470509 -0.0027515723 0.0049863784 -0.008539422 0.0025071243 0.006240715
사례 -0.020585058 0.01692548 0.01634191 -0.005560848 -0.004835017 -0.057197988 0.011649093 0.06851827 -0.031048853 -0.017527139 -0.0051651 -0.033919174 9.048614e-05 0.019021599 0.01828146 -0.018336177 0.01509046 -0.03371978 -0.0016029981 -0.06645395 0.021036012 0.016708497 0.0246694 -0.023733784 -0.022030808 0.0013512812 -0.018367246 -0.01922146 -0.02213446 0.013747569 0.036876015 -0.0057840142 0.016124552 -0.024729673 -0.01726676 0.036189895 0.010409192 -0.020908104 -0.024876393 -0.041993074 0.015213026 -0.012699994 -0.0021164434 -0.006972949 0.027782727 -0.0046823686 -0.030970987 -0.009084361 0.019547122 0.0105755795 0.014415625 -0.01990025 -0.0046761027 0.011745679 -0.02014973 0.023104882 0.011904487 0.007533989 -0.031387504 0.012458687 0.0015271977 0.007963482 -0.004864766 -0.010640586 -0.037198525 0.02654435 0.023561452 0.00906515 -0.04099184 0.04957587 -0.018925594 0.0075960974 0.017641136 -0.013579855 0.042206492 0.016342608 0.0140505005 -0.009072501 -0.030487724 0.014313562 -0.02030344 -0.00766895 -0.029336888 0.041556373 -0.019758666 -6.074379e-05 -0.009896863 0.03718016 0.034690917 0.01621411 0.03919118 0.008212661 -0.0050791693 -0.012070598 0.039764207 0.0260633 0.029625261 -0.027810438 0.0062755286 0.00078142283
전사 -0.02138914 0.018913362 0.0112811485 -0.0054127574 -0.005514012 -0.059726387 0.028309643 0.06874048 -0.034418296 -0.022162108 0.0029165302 -0.027516888 -0.0010901567 0.014754146 0.0046691466 -0.016257068 0.005914775 -0.012407608 -0.020401686 -0.06362798 0.0019065938 0.01229363 0.010230377 -0.007676828 -0.016908562 -0.01366976 -0.008278013 -0.028907085 -0.024702186 0.0052388445 0.03379406 0.005157442 0.02681015 -0.009694591 -0.008934079 0.03444247 0.012696503 -0.03311744 -0.0058757663 -0.04271919 0.0014259185 -0.020265913 0.0016654249 -0.0024798266 0.033327524 -0.002485084 -0.014673719 -0.008978011 0.026088983 0.0055389097 0.015644085 -0.011140135 -0.0077167144 0.005226378 -0.007815363 0.020057706 0.015202949 0.0062026475 -0.024736874 0.023701826 0.013655146 0.00813449 -0.0045682783 -0.017209047 -0.03543047 0.021030828 0.0098819975 0.0066241445 -0.045772243 0.045815658 -0.01887173 -0.001840234 0.027444212 -0.005938088 0.032996647 0.020355916 0.01066646 -0.004406118 -0.02486599 0.011088262 -0.0051245447 -0.001817928 -0.032699116 0.04046484 -0.010790086 0.003172905 -0.0047436277 0.029238338 0.046258952 0.01575153 0.03229622 0.005705754 0.00058643793 -0.0029815352 0.044869553 0.0065362295 0.027121644 -0.034200743 0.011401932 -0.017323771
효과 -0.008262889 0.029668769 0.009452875 -0.0013010337 0.0038726998 -0.053012125 0.013186164 0.072311215 -0.029414047 -0.010462187 -0.005669422 -0.023699544 0.0015782735 0.014248288 0.00046674514 -0.018755414 0.012216208 -0.015415238 -0.01772583 -0.06994284 0.0063168467 0.012893072 0.010985592 -0.021982262 -0.0129698245 -0.0061460636 -0.024013951 -0.024856908 -0.02730504 0.019916313 0.02678548 -0.0051611853 0.018806338 -0.023033507 -0.015750367 0.051082294 0.0079831695 -0.02556926 -0.013740286 -0.0582905 0.0038577463 -0.021881629 -0.0024205132 0.0006668318 0.021378547 -0.005200901 -0.026607545 -0.01601119 0.017369946 0.0052859373 0.007840917 -0.024613913 -0.018934326 0.0032695974 -0.011852151 0.0093774935 -0.0015155813 -0.0057729715 -0.043543424 0.015465313 0.010476632 0.005417272 -0.0006905563 -0.014756779 -0.029011095 0.027293107 0.028903352 0.007874303 -0.054103486 0.032409422 -0.024082791 -0.003084717 0.015976014 -0.010325386 0.034097634 0.014941187 -0.0013012066 -0.005602717 -0.026415627 0.01554579 -0.008737516 0.0025157146 -0.03060014 0.038620327 -0.022977104 0.0017883639 0.0025182085 0.037216928 0.03929872 0.011282398 0.0273874 0.013024344 0.008594802 -0.00741575 0.04268654 0.0081533855 0.008833323 -0.019446021 -0.00021434766 -0.0032869102
정보 -0.024286881 0.017851459 -0.0003056432 0.009641619 0.0104721775 -0.045103505 0.026306262 0.061667558 -0.039618235 -0.0046547772 -0.0035265172 -0.022425992 0.0067189275 0.012682465 0.0014925537 -0.023448555 0.011256666 -0.029078653 -0.009265481 -0.06631293 0.01968872 0.009782431 0.02764755 -0.018450722 -0.020204574 -0.016494624 -0.018212516 -0.014658137 -0.026651109 0.021759069 0.026678545 -0.00085816614 0.027992465 -0.0067243893 -0.016297288 0.0486913 -0.007824795 -0.020153461 -0.014422465 -0.044980574 0.011667998 -0.018383535 -0.010168769 0.0032591904 0.023865703 0.0007755767 -0.018530581 -0.015175858 0.025969418 0.009018807 0.012433601 -0.016080119 -0.010850673 0.0060413205 -0.016036322 0.017671254 0.0060349237 -0.0054487046 -0.04182051 0.00577702 0.004134016 0.0023549078 -0.004691001 -0.02330558 -0.04436997 0.021497307 0.024005938 0.013801943 -0.05075692 0.039980035 -0.01596885 -0.000552622 0.020661492 -0.0075748763 0.027339673 0.0064981803 0.0149663715 -0.0067310506 -0.028553892 0.017548777 -0.01472985 0.0025448662 -0.029281966 0.0403206 -0.017626107 -0.006070335 -0.0071270126 0.035710596 0.0407661 0.009110409 0.039370537 0.0077958317 -0.0018761875 -0.0121007105 0.03440611 0.0072776135 0.02040348 -0.024052376 0.011882311 -0.0058909534
계속 -0.010849484 0.022055421 0.0038159387 0.004112888 0.011554922 -0.039685078 0.020955302 0.04184526 -0.01676619 -0.0058435383 0.006465469 -0.033979125 -0.00021516504 0.014394626 0.0013107496 -0.023856279 0.010876362 -0.024592984 -0.013230676 -0.03766157 0.0013907502 0.018780261 0.015536342 -0.005208776 -0.011320489 -0.011199667 -0.020111015 -0.016015213 -0.025652057 0.0069491453 0.0281258 -0.011701098 0.012368238 -0.017620195 -0.017823417 0.022804016 0.001319271 -0.007175613 -0.0030307854 -0.04106654 -0.003973146 -0.015672933 -0.016257247 -0.0029293245 0.01329224 0.006701744 -0.027018534 -0.005018818 0.015944129 0.012202913 0.005719492 -0.025794286 -0.0018878261 -0.002835698 -0.005973081 0.012205627 0.014095273 -6.628712e-05 -0.027559357 0.018818736 -0.0035853737 -0.0024657156 0.0018107598 -0.01723847 -0.031673323 0.014370247 0.004563094 0.0128669245 -0.035328653 0.025866913 -0.009767791 0.008586436 0.02398684 -0.013378009 0.018721027 0.0042587616 -0.0036154287 -0.011608601 -0.0212591 -0.00032057354 -0.01694532 -0.006713823 -0.014923704 0.027113898 -0.004464742 -0.009398178 -0.0062312824 0.019238561 0.04037852 0.00793859 0.026229048 0.012865114 0.0030763533 -0.012979278 0.035494898 0.018794935 0.019430576 -0.016452707 -0.0040799966 -0.0105218245
가능성 -0.008355372 0.01928727 -0.002595521 0.0066569485 -0.002116173 -0.04163366 0.022488946 0.055050828 -0.026079096 -0.0075719007 -0.0022676212 -0.031122176 0.010223341 0.022866527 -0.0012475154 -0.013476403 0.014157618 -0.023814417 -0.0076763392 -0.059153307 0.019364262 0.011966472 0.022969969 -0.002193369 -0.0058423746 -0.0146038355 -0.0154049285 -0.018311633 -0.023357777 0.015178313 0.032997508 0.00024462628 0.033992454 -0.023252483 -0.019346545 0.041489925 0.005254552 -0.022807458 -0.020269617 -0.04749684 -0.0038117457 -0.005952694 -0.004191589 -0.005486863 0.026481863 0.008130418 -0.02876701 -0.014206346 0.018688722 0.017793365 -0.00026631268 -0.01892092 -0.016737875 0.0031952073 -0.009079473 0.006707492 0.0027843774 -0.0013291779 -0.038691748 0.022552446 0.008239709 -0.0011197521 -0.0052148593 -0.014675982 -0.04291576 0.011923075 0.009416969 0.010419055 -0.03305809 0.042963687 -0.011579867 -0.0034132057 0.026673272 -0.001925396 0.030110454 0.0070957704 0.005133943 -0.009741832 -0.03255502 0.012455273 -0.014092107 -0.0121606495 -0.035182983 0.037968867 -0.02527918 -0.006207339 0.0033729402 0.02483483 0.03600207 0.002971884 0.028798897 0.019391371 -0.0049270303 -0.008476231 0.033921316 0.010612037 0.0077258297 -0.03569739 0.013955507 0.0004592843
시장 -0.02321461 0.013294439 0.0066988696 -0.0017467239 0.014004049 -0.053370185 0.01459565 0.06672226 -0.043538008 -0.013119797 -0.00294195 -0.036894646 0.0060540508 0.02294024 0.014686792 -0.031335417 0.011694067 -0.034523316 -0.019095747 -0.07348931 0.010222461 0.0150397355 0.016860088 -0.012429014 -0.0022771556 -0.0020537626 -0.016599614 -0.013004896 -0.028700748 0.011872189 0.019402608 0.0016162521 0.019050863 -0.01870791 -0.007847218 0.04315505 0.0046403036 -0.033247586 -0.010870514 -0.043015238 -0.0043149376 -0.021221224 -0.00065131794 0.00679017 0.02755982 0.0050516855 -0.036887273 0.00039430885 0.018034289 0.005408622 0.013877105 -0.02145133 -0.017958524 0.010225722 -0.01719942 0.00792471 0.014292993 0.004123875 -0.027424388 0.01891336 0.0046523795 0.0010303153 0.0007034232 -0.011725646 -0.040932387 0.021214657 0.016782003 0.018278098 -0.056353014 0.04704538 -0.015946025 0.01458551 0.018717233 -0.012779558 0.028460294 0.011351555 0.011164882 -0.0068209064 -0.027639829 0.0154334465 -0.026778607 -0.006348686 -0.039168313 0.0402025 -0.021685518 0.009222407 -0.0062707216 0.03599179 0.049406335 0.010716783 0.03515627 0.024202757 0.0033016736 0.0045112562 0.04930793 0.024221957 0.024497328 -0.03722821 0.0010035686 -0.008007612
수행 -0.019646158 0.025655057 0.010567546 0.010450037 -0.0001533495 -0.058708046 0.02828855 0.07563659 -0.030739471 -0.011631127 0.00029295587 -0.044367984 0.003752408 0.0068112104 0.007658609 -0.034437217 0.0053192517 -0.034332886 -0.004187446 -0.073377155 0.022957882 0.0053900285 0.017116154 -0.012564492 -0.014880173 -0.0066378876 -0.020147547 -0.023166379 -0.036487646 0.004397774 0.034161717 -0.004019838 0.035156164 -0.024857711 -0.012611245 0.037747223 0.011092462 -0.021273332 -0.022283928 -0.044832982 -0.0005353333 -0.027913282 -0.007865249 0.0061451704 0.020597193 -0.005049745 -0.018410387 -0.008435008 0.021865273 0.013044183 0.0086997645 -0.02137596 -0.009697178 0.015377805 -0.02104807 0.017042244 0.013959104 -0.008574628 -0.046543747 0.026699642 0.011799985 0.0056038215 0.00146866 -0.020585848 -0.04690436 0.022507228 0.016920261 0.025941804 -0.04866476 0.034610074 -0.017875725 0.0036384568 0.033046067 -0.008823018 0.043412022 0.021486817 0.004156391 -0.0033980107 -0.027131757 0.007998455 -0.023679769 -0.007962776 -0.037404947 0.0431043 -0.028832648 -0.0054696486 0.0020225197 0.03063746 0.053107616 0.006245419 0.036775574 0.019439531 0.0058748536 -0.0016470439 0.058750283 0.022765871 0.012231347 -0.0329368 -0.001548228 -0.014482748
차원 -0.01830099 0.009780937 0.01767728 0.0043962304 0.0028064176 -0.055006582 0.009370097 0.051203568 -0.020370826 -0.015798472 0.006291227 -0.03462239 0.010790598 0.017121403 0.009827503 -0.02522404 0.0062036184 -0.02462563 -0.0031854096 -0.05287361 0.011728299 0.015972752 0.021415928 -0.01921078 -0.00073728565 -0.004841051 -0.019596929 -0.010791138 -0.027548157 0.021364031 0.021478703 0.0031340516 0.027774002 -0.019835165 -0.017176716 0.049720284 0.0043582283 -0.029283172 -0.013664561 -0.047208365 0.0055646496 -0.024177244 0.0004840255 0.0043114955 0.032785006 0.008280921 -0.028030485 -0.0040001455 0.017175512 -0.0008281878 0.01818029 -0.009131527 -0.0008732729 -0.00029024784 -0.021267142 0.017611887 -0.002620952 0.0073344233 -0.02871486 0.021065867 0.010378164 0.008316548 -0.0059596244 -0.017242705 -0.02512781 0.012537287 0.016129157 0.014088298 -0.037487723 0.042825006 -0.01888648 0.008661153 0.017128348 -0.003221784 0.03890482 0.020326348 0.0028662856 -0.013155251 -0.01743966 0.02051095 -0.008756498 -0.0075365603 -0.028911583 0.026299985 -0.02099238 0.0039105937 -0.007974916 0.018693125 0.047781836 0.017779808 0.039269354 0.015283357 -0.009281368 -0.011039834 0.041647952 0.0065677403 0.009527296 -0.024590047 0.0020590972 -0.017135171
측정 -0.015991384 0.016569652 0.0020545584 0.00054873276 0.0065954225 -0.06555142 0.017827632 0.08706258 -0.028941825 -0.024838785 0.011566661 -0.031685498 -0.00675741 0.015744282 0.015788238 -0.02045469 0.0024204964 -0.03549168 -0.008718176 -0.08438713 0.008293073 0.014800516 0.028856723 -0.021797324 -0.008326939 -0.009702684 -0.01494665 -0.019244973 -0.03239802 0.023811279 0.030397614 -0.013030763 0.041378044 -0.023803309 -0.012986978 0.048412967 -0.0045277392 -0.03625879 -0.0131320935 -0.058842864 0.0072625554 -0.030010125 -0.015393388 -0.0025107681 0.03982886 -0.0037144606 -0.02511968 -0.011507198 0.023142014 0.020236747 0.009121776 -0.032631643 -0.01220085 0.0133271385 -0.007751996 0.011896003 0.010721451 0.002547315 -0.047429387 0.027340494 -0.0005273984 0.012197804 9.892252e-05 -0.019197404 -0.050691474 0.02884432 0.030677741 0.02987663 -0.06490259 0.052462295 -0.014416185 0.0050206687 0.03812769 -0.012948068 0.037870113 0.0141867325 0.0054584784 -0.012727338 -0.035989303 0.00741679 -0.012803488 -0.011587501 -0.04169455 0.050994597 -0.012106359 0.003963951 -0.0020548822 0.03408268 0.05041953 0.017534407 0.033819526 0.018983616 0.0052709407 -0.0065683145 0.053934403 0.02442542 0.03112257 -0.032427963 0.017544247 -0.015962446
성과 -0.0075536347 0.0112969205 0.0012061517 0.0028401192 -0.0009546458 -0.042616982 0.016964974 0.05412682 -0.028153995 -0.019303707 -0.0023022634 -0.0146505805 -0.0097058145 0.020246597 0.006285744 -0.012904972 0.001028005 -0.021769036 -0.004660849 -0.03643104 0.0010719919 0.008474152 0.0151084205 -0.0048261 0.0005790531 -0.009206086 -0.0026519804 -0.020398246 -0.021807577 0.018471409 0.022470513 -0.011628157 0.016806267 -0.0199552 -0.011616344 0.035589237 -0.0054224078 -0.01108962 -0.004057085 -0.03700635 -0.006401728 -0.014590556 -0.008545869 0.00601144 0.026818722 0.0046947207 -0.019112043 -0.0029619953 0.00655629 0.0056777583 0.0057007186 -0.0043458287 -0.013792831 -0.003968277 -0.0073436345 0.0119472295 -0.0027451366 -0.0074191154 -0.02514171 0.008550669 -0.005951791 0.0014320766 -0.0055286484 -0.0069428748 -0.02512309 0.016171427 0.013638677 0.008793771 -0.02824631 0.028027916 -0.004483847 0.0030306675 0.0073387735 -0.0037901879 0.033012237 0.00654858 -0.00012412519 -0.009962637 -0.010114172 0.006944717 -0.0015377173 -0.011745824 -0.010606642 0.014252173 -0.0032488622 0.0021569368 0.0013817826 0.013153536 0.038064357 0.012331845 0.017746573 0.00091285346 0.007722043 -0.007889263 0.021031985 0.014431288 0.007162008 -0.026740532 0.013811322 -0.0075639044
통제 -0.02011497 0.018469596 0.004136641 -0.002843172 -0.0014478486 -0.060242772 0.011669952 0.07838033 -0.02590034 -0.018945402 0.003891401 -0.041485738 0.008591738 0.023464635 0.011199938 -0.030832654 0.0021794518 -0.019121291 -0.014650744 -0.061093405 0.022108248 0.018433018 0.0149781015 -0.007996579 -0.013795398 -0.014476015 -0.007998491 -0.031519167 -0.03024209 0.012490479 0.016829833 -0.0053740586 0.0328646 -0.022102738 -0.02260149 0.051077265 -0.00091686606 -0.032859653 -0.014912968 -0.049970224 0.0130606 -0.017411016 -0.00022807285 -0.0067119203 0.030993473 0.01038685 -0.025337778 -0.012433454 0.0210779 0.00868739 0.0025078913 -0.029383065 -0.010323965 0.0027484195 -0.00454774 0.012965074 0.0131502375 -0.00012209076 -0.027901737 0.0076069892 0.0069876397 0.0074746064 -0.001796413 -0.02016737 -0.046100263 0.031064302 0.017161516 0.020404803 -0.054383717 0.04442573 -0.0063543897 0.004791953 0.031576805 -0.00797278 0.042502392 0.028478919 0.007845361 -0.012625673 -0.038145564 0.021196999 -0.01944184 -0.003437216 -0.03204351 0.045135394 -0.010252039 0.001660006 0.00064462074 0.034939248 0.046781078 0.016105525 0.03462551 0.013640891 0.0064463876 -0.0071373624 0.04239132 0.026876733 0.008837974 -0.032822944 0.0036062284 -0.0028691988
시스템 -0.010022909 0.0153884785 0.01486085 0.0024820066 -0.00501409 -0.057395685 0.018197147 0.06347589 -0.033540554 -0.020286243 0.007616355 -0.023614278 -0.0006417739 0.018780464 0.00917107 -0.024562236 -0.002521975 -0.022941655 -0.0076116486 -0.056675084 0.018753182 0.01759274 0.02475336 -0.021936467 -0.012611176 -0.013554681 -0.008220453 -0.01423756 -0.032500952 0.014625599 0.030311564 -0.0025536418 0.028068068 -0.023121698 -0.0047872365 0.036966853 -0.0036825058 -0.030988825 -0.022099659 -0.053209573 -0.0043630726 -0.016236048 -0.012314315 0.0013354068 0.032265946 0.007891544 -0.023988884 -0.010850368 0.030046044 0.010388778 0.01628701 -0.01184943 -0.02147056 -0.004550192 -0.004368582 0.016471412 0.004814594 0.0024896485 -0.039980385 0.010984352 -0.003981033 0.01654094 -0.006499971 -0.028291615 -0.04460299 0.02828877 0.017428454 0.0119223595 -0.048941076 0.038699944 -0.019488493 0.0031896753 0.02894773 -0.0057710456 0.030203348 0.019988013 0.013251925 -0.020632826 -0.035988104 0.017490054 -0.02593991 -0.0044994177 -0.03944069 0.044307493 -0.023197804 -0.0062917313 -0.0037101898 0.026807364 0.051771514 0.01817057 0.033252254 0.01824121 0.0053178826 -0.0033713302 0.039367743 0.0169603 0.020520404 -0.020607537 0.0026947171 -0.019078098
통합 -0.010447387 0.029030515 0.00060309796 0.0005540633 -0.0010765552 -0.041849114 0.027641144 0.05969453 -0.023865664 -0.0062153637 0.0061149197 -0.037379786 0.0039664498 0.011434719 0.006048618 -0.015029315 0.002783976 -0.010935333 -0.010633271 -0.05620878 0.008912606 0.0039050432 0.0073883417 -0.0070834816 -0.01653671 -0.0039304495 -0.010499155 -0.026677717 -0.028138904 0.0061561465 0.014496837 -0.0034899302 0.034406114 -0.02162931 -0.017710041 0.047122065 0.011851837 -0.011852325 -0.023483647 -0.038815226 -0.002626931 -0.00915391 -0.0016181088 -0.00031098528 0.030796418 -0.0040955953 -0.018250661 -0.0030773685 0.023527883 0.014977266 0.0062029925 -0.014625194 -0.015851479 -0.0030767592 -0.00995864 0.0021343536 0.0051546795 -0.00087505777 -0.02284791 0.008588439 0.0024538005 0.0035448633 -0.008885153 -0.018274557 -0.02913773 0.014298983 0.015949028 0.024470687 -0.043104786 0.031428184 -0.0068598897 0.006034928 0.021341763 0.0032606032 0.037961528 0.01934231 0.010424584 -0.012075677 -0.01633556 0.015085447 -0.019699754 -0.010684686 -0.027673265 0.02411779 -0.012623535 -0.00901175 -0.002798928 0.028440159 0.04210822 0.011540272 0.020543352 0.017443834 0.006559106 0.0003334859 0.04701168 0.017171975 0.022374606 -0.016788196 0.0051844036 -0.008083533
사적 -0.0128438445 0.010868851 0.012497265 -0.0036377532 0.00039730855 -0.046680465 0.02480142 0.058143478 -0.027980503 -0.014711508 -0.0015288675 -0.028860811 -0.004377655 0.007972778 0.008662702 -0.0145068765 0.0059118657 -0.012884544 -0.008247805 -0.055699542 0.0029761335 0.017740762 0.023618482 -0.017292699 -0.0047856513 0.003129602 -0.018681305 -0.02097348 -0.03254864 0.014711902 0.01760131 -0.0011623073 0.03169263 -0.022152012 -0.02210624 0.038183864 -0.0059316223 -0.029540513 -0.022267668 -0.04072991 0.0030822624 -0.013981101 -0.008538995 0.01184928 0.030716972 -0.0026405111 -0.012473183 -0.016126698 0.014566726 0.011008689 0.008576829 -0.021540804 -0.008536107 0.004594385 -0.02109572 0.0063146194 -0.0024935212 0.0018636236 -0.02959558 0.006180873 0.009823915 0.007494428 -0.000717059 -0.011242231 -0.035709087 0.026017869 0.008431539 0.011402755 -0.04631229 0.034103695 -0.021205869 0.013525281 0.025163416 -0.01341388 0.033808053 0.021614341 -0.0011853416 -0.00409433 -0.030711608 0.01864533 -0.008581029 -0.004493103 -0.034059554 0.02915561 -0.015522967 0.0009534017 0.0074312068 0.020520749 0.027476711 -0.0015661109 0.027336786 0.014172331 0.0006649666 -0.0048574307 0.045229476 0.015228729 0.021977523 -0.01983874 -0.0018208674 -0.009240672
손실 -0.024445793 0.013257159 0.004466749 0.008773662 0.0033722993 -0.040177613 0.015646657 0.056470126 -0.02578179 -0.011206972 0.0007249918 -0.033110153 -0.004984619 0.018329185 0.00032472887 -0.031008365 -0.004684862 -0.013386369 -0.00661835 -0.05020191 0.020939887 0.0050357077 0.022391077 -0.00865059 -0.0038928643 -0.010791491 -0.004218753 -0.025562545 -0.018924424 0.020264454 0.023291914 0.00088070857 0.031720303 -0.013462927 -0.0061898585 0.04289322 0.0007629609 -0.014963522 -0.009328961 -0.048526414 0.0065541393 -0.01579337 -0.0026738534 -0.0022846488 0.019669512 0.0031265034 -0.019599773 -0.014829439 0.025978686 0.0058624353 0.015750278 -0.016494378 -0.0031757161 -0.00088426046 -0.01645509 0.015307955 0.0030634257 0.0038976106 -0.03866224 0.018096942 0.0026218176 0.006902459 -0.00062150194 -0.020564096 -0.03962884 0.010919053 0.021218698 0.021986902 -0.049166527 0.04597089 -0.010290285 -0.00024341472 0.020773258 -0.0024518727 0.02334597 0.018018683 0.013116187 -0.0035637692 -0.019560542 0.014314648 -0.01821012 -0.010958675 -0.01908333 0.02468848 -0.018285014 -0.0034444933 0.0044657597 0.019826993 0.04326444 0.010462186 0.02675446 0.0058162394 -0.007452388 0.0001004343 0.030631488 0.021644784 0.013576795 -0.036057163 0.0011295893 4.767033e-06
관련 -0.020297986 0.029060248 -0.0009445493 -0.0073323986 -0.00053012115 -0.053950872 0.012646584 0.05933922 -0.041617937 -0.015500775 0.0089571 -0.04178064 -0.0042901947 0.016580604 0.013145038 -0.0327639 0.013150929 -0.032225408 -0.007042631 -0.054637324 0.018223189 0.02051095 0.028147431 -0.0102988295 -0.018606588 -0.002367023 -0.02360971 -0.028219705 -0.022824561 0.005563159 0.019587284 -0.008093574 0.030770827 -0.011394089 -0.0132238045 0.05008336 0.00030502258 -0.020517753 -0.022718769 -0.05213867 -0.0025773558 -0.017377244 -0.0041013635 0.008529423 0.02220888 0.006540317 -0.018962046 -0.014805318 0.016086414 0.009354245 0.0057592327 -0.012988345 -0.0033638685 0.013450185 -0.004941986 0.0054288907 0.005963183 -0.010300326 -0.04075744 0.008465604 0.008572769 0.009106713 -0.010626008 -0.01301587 -0.03812893 0.022117171 0.016591152 0.015447789 -0.05056006 0.048746023 -0.014323858 0.0002811916 0.029235547 -0.006842322 0.031239118 0.025920127 0.004396941 -0.003854271 -0.032860395 0.003676472 -0.021258764 -0.008992887 -0.031825878 0.034755584 -0.013411598 0.005686723 -0.0037421288 0.031889882 0.04181717 0.009584861 0.0330574 0.0135125965 -0.003967644 -0.007816786 0.045372352 0.019619526 0.009108429 -0.024146577 0.0049158563 -0.0119897695
수준 -0.02668453 0.021777913 0.005274333 -0.0072265244 0.0042051715 -0.07212406 0.018591516 0.07335929 -0.02755819 -0.019493433 -0.006513164 -0.03370844 -0.0069451868 0.015917737 0.013996534 -0.0351554 -0.0022654806 -0.035524227 -0.00601649 -0.06579939 0.018194413 0.01857859 0.027752843 -0.020413268 -0.0038423578 -0.002394367 -0.013408752 -0.016823865 -0.04188734 0.017101018 0.039439607 -0.0061437534 0.024916334 -0.021771844 -0.020317903 0.050056696 0.0013972726 -0.022785757 -0.018130425 -0.054544322 0.0024957347 -0.012643534 -0.016410725 -0.0059051453 0.027446691 -0.0026515524 -0.035905804 -0.010671257 0.025792012 0.013587913 0.017957225 -0.027007945 -0.010769756 0.0055688675 -0.008335594 0.02474991 0.0060843504 -0.0015978081 -0.048285346 0.01460905 -0.0010249924 0.010427318 -0.0089882165 -0.028279848 -0.044307295 0.028810449 0.014560021 0.023356704 -0.0508104 0.05184172 -0.022216765 0.016141612 0.038210366 -0.00864358 0.04068643 0.012409144 0.004666387 -0.013096218 -0.02920541 0.013392949 -0.028261857 0.00051142933 -0.04357864 0.05182971 -0.016454313 -0.0068734917 0.0003084474 0.041262053 0.044444278 0.0037311327 0.049924806 0.02006144 0.010415532 -0.014061034 0.051137857 0.028296977 0.02084357 -0.036700193 7.930334e-05 -0.015886785
운영 -0.019796824 0.025381349 0.004086696 -0.007082474 0.011232107 -0.041942034 0.01328475 0.04806351 -0.020278776 -0.014775582 0.00067892496 -0.026151773 0.009113577 0.017215403 0.00843236 -0.022748688 0.0067242077 -0.01569612 -0.014663307 -0.051235408 0.0050977026 0.012609419 0.0058501493 -0.014307976 0.0001916039 -0.009740085 -0.002432444 -0.015054678 -0.026108788 0.0049163257 0.018506082 0.00087395916 0.013140568 -0.017336586 -0.017778121 0.038586996 -0.0005168816 -0.013809567 -0.0128377015 -0.04286261 0.002285972 -0.012368612 -0.0030858542 -0.006346315 0.0123381335 -0.0031677596 -0.015266265 -0.009892396 0.015263495 0.011554105 0.012307786 -0.012823624 -0.010628678 0.003667106 -0.015825933 0.0033219892 0.013107347 -0.005963148 -0.03496006 0.016253253 0.011877985 0.0061526103 -0.0006936557 -0.018085795 -0.03145534 0.0066840863 0.0066627283 0.0033967465 -0.039892387 0.037625436 -0.0020272867 0.0022521594 0.017036807 0.002279936 0.025429776 0.0074031185 0.008161365 -0.0062883976 -0.023670925 0.0031120747 -0.001731238 0.0036272004 -0.030373 0.020425588 -0.012005454 0.00094410393 -0.010090522 0.029322056 0.026052177 0.011296265 0.033807974 0.012138949 0.0050912877 -0.005223924 0.022489652 0.013007908 0.012221048 -0.030774571 0.011582472 -0.014020959
식별 -0.0069508 0.0106267 -0.0043087373 -0.008266591 0.009439891 -0.04278733 0.019280693 0.04445134 -0.01147189 -0.0021530748 0.011270416 -0.013536824 -0.007908244 3.179568e-05 0.0003432826 -0.016346052 0.008828416 -0.012297509 -0.0098758545 -0.038047723 0.004214633 0.0021100184 0.01793328 -0.018563211 -0.0068045263 -0.010406434 -0.002179718 -0.01819096 -0.01642417 0.002733329 0.028015977 -0.0090038115 0.02144267 -0.0077971206 -0.001048743 0.02422069 -0.0031690146 -0.023317307 -0.0033453032 -0.038568962 0.00780452 -0.013274801 0.0007785622 -0.0042078258 0.017544162 0.0031047645 -0.02609804 0.002739362 0.010744887 0.013745026 0.007075907 -0.00989052 -0.0046365573 0.011232051 -0.018001314 0.017920513 0.0135444775 -0.00040008547 -0.019729905 0.015825665 0.0075055943 0.002163575 0.00013187606 -0.0136136105 -0.021137238 0.024058755 0.005734402 0.012510177 -0.040865663 0.025366796 -0.020611508 0.0067780227 0.014666294 -0.0056334212 0.02876306 0.00369999 0.006709888 -0.010155939 -0.0225276 0.00013159591 -0.018677793 0.0053851292 -0.027754704 0.029384715 -0.016126448 -0.0017521289 0.0018326673 0.010154802 0.023420427 -0.002122162 0.012682032 0.006172351 -0.002532601 -0.0022771365 0.028809246 0.004189185 0.009128817 -0.022627419 -0.0022059656 -0.0123065
기능 -0.019976154 0.01260975 -0.00036691473 -0.0056675836 0.007665862 -0.06059668 0.015372341 0.07177021 -0.023669256 -0.021138912 0.008391728 -0.04009884 0.0009842912 0.020862183 0.0059602777 -0.013372704 0.0043838457 -0.01844417 -0.0032240103 -0.06971531 0.005367132 0.005087005 0.01844103 -0.020240773 -0.01037197 -0.015916344 -0.013391008 -0.020971194 -0.020858826 0.0034621772 0.02149349 0.002091282 0.035139363 -0.017013358 -0.013653051 0.035908855 0.0030395833 -0.032572743 -0.022394797 -0.045741733 0.0045997226 -0.010672715 -0.018008346 0.0046303556 0.026792131 -0.0012078524 -0.02449516 -0.0027324934 0.012401082 0.009981748 0.014851891 -0.019076573 -0.007753152 0.013139432 -0.006988077 0.016579257 0.014577397 -0.010060668 -0.0258888 0.020577198 -0.0017947895 0.004163295 0.0022627423 -0.013111667 -0.047170125 0.022573689 0.018951286 0.01798372 -0.037811533 0.03143646 -0.006059272 -0.0041690213 0.029809795 0.0024302602 0.028578319 0.007737252 0.01399173 -0.019768251 -0.035300314 0.010359782 -0.022885209 0.004085037 -0.020746509 0.035640914 -0.009128002 0.01041267 0.003813281 0.031246692 0.047118574 0.015389579 0.03694121 0.021253776 -0.0077033723 0.0056863227 0.051342346 0.026112918 0.007988867 -0.03160039 0.0055539925 -0.0036254202
통해 -0.02568998 0.021641912 0.01404521 0.011630132 0.0014154929 -0.050974052 0.025693232 0.06424595 -0.029568775 -0.024212359 0.0017843966 -0.027570464 0.0054306625 0.0045857904 0.004853034 -0.019953966 0.006506845 -0.028195586 -0.004945389 -0.058066458 0.004065685 0.023947315 0.011579763 -0.01633816 -0.0011101953 -0.0065214993 -0.02045296 -0.02018607 -0.032203194 0.006292072 0.016901916 0.00046182785 0.016559782 -0.01213337 -0.020383434 0.048583157 -0.0014163395 -0.029720368 -0.008685666 -0.056483224 0.006433198 -0.019233547 -0.014911833 -0.004448905 0.032767903 -0.00019503155 -0.020890381 -0.018609067 0.02089821 0.0072153765 0.0044961516 -0.023801886 -0.019547557 0.00090424356 -0.016442606 0.011320929 0.0012646788 -0.01134127 -0.028604126 0.014817726 0.010804662 0.011703001 0.004726565 -0.023045152 -0.046249807 0.022790728 0.010207338 0.023839956 -0.03714791 0.039673157 -0.007992543 0.0140218465 0.027685419 -0.0020873768 0.0417948 0.01898185 -0.00038436215 -0.018917192 -0.029236374 0.0101959845 -0.0072324523 -0.014479164 -0.03209894 0.0444812 -0.019795382 -0.008863549 -0.0003018339 0.021462785 0.03701231 0.0023457482 0.033620022 0.022340292 0.0045393286 0.0051565976 0.052156653 0.022021484 0.011924167 -0.021096684 -0.00340049 -0.013145524
가치 -0.0066015455 0.025451556 0.0012758012 -0.0068692593 0.011541787 -0.04583371 0.011112729 0.059659816 -0.019584848 -0.007825399 -0.0005737635 -0.017281078 0.0097015705 0.018457549 0.017183885 -0.024054337 0.004780645 -0.020558618 -0.0017814626 -0.039500646 0.014474497 0.01548638 0.02190989 -0.004357282 -0.008677454 -0.014938486 -0.014520682 -0.0076029096 -0.027573124 0.011833834 0.024473345 -0.01037346 0.028550241 -0.011079776 -0.009435542 0.04286912 0.003342663 -0.018596198 -0.021526165 -0.027555931 -0.0059657563 -0.005154003 -0.0016427564 0.0030219625 0.013069552 0.013006617 -0.022221835 -0.0017652297 0.0124454945 0.0024892392 0.008489142 -0.025357543 -0.015407912 -0.0055403924 -0.0057093315 0.011533449 0.0039308835 0.003017719 -0.029463632 0.0056905164 0.005885917 0.00077152794 -0.00214163 -0.0053877006 -0.030615453 0.023441132 0.020026322 0.010276122 -0.04143633 0.039976068 -0.010417192 0.0041242805 0.019787628 -0.011008703 0.029801495 0.011766025 0.010149857 -0.0136486795 -0.022413518 0.012744461 -0.020196425 -0.0076825987 -0.032336798 0.029889686 -0.012156739 0.0026722841 -0.0010150591 0.02162095 0.036735035 0.0060939933 0.03285379 0.008945614 -0.00513457 -0.008302013 0.02473897 0.0060594417 0.016460335 -0.018361893 -0.00035835645 -0.01689938
위해 -0.023042453 0.025181642 -0.0014402476 0.0072402726 0.010777212 -0.04429399 0.010366468 0.0647855 -0.035887375 -0.0042866007 -0.0031785283 -0.03344502 0.0061778147 0.013072153 0.014484436 -0.02593953 0.009699693 -0.032359067 -0.0045338855 -0.060141124 0.0055175335 0.012865135 0.01685656 -0.0132916 -0.012181416 -0.017006949 -0.021891698 -0.026140146 -0.03548828 0.007782923 0.032668866 -0.005669755 0.017582463 -0.020933546 -0.01038081 0.038230926 0.0013467881 -0.027219556 -0.008558854 -0.05288985 -0.0029774893 -0.008389965 -0.014731736 0.005797615 0.024890648 0.013864717 -0.019325532 -0.0061255298 0.020957397 0.012044824 0.012176694 -0.0223275 -0.006040336 0.011079532 -0.004517007 0.0116675375 0.0051337075 0.0047613005 -0.041127097 0.015163991 -0.0028408067 0.013112193 -0.012756834 -0.0151223745 -0.026431572 0.018186567 0.009467626 0.00858452 -0.03984238 0.031079313 -0.008720924 0.004160552 0.030859174 -0.00696394 0.024468314 0.010939054 0.007962676 -0.014919509 -0.0189729 0.006245126 -0.021156965 -0.0036690847 -0.032501057 0.024867246 -0.02285304 -0.0021415832 -0.0012695106 0.02999832 0.047627598 0.015175999 0.036964256 0.014739152 -0.0052803 0.0059722937 0.041137733 0.021123197 0.015381582 -0.02046096 0.011427245 -0.015710944
역할 -0.01933494 0.01973095 0.009279775 -0.007883186 0.008591439 -0.04688077 0.018092733 0.058686692 -0.03760201 -0.0061179777 -0.0074378187 -0.038286973 0.0051631373 0.004914947 0.0052113207 -0.02341782 0.0026833608 -0.029113036 -0.0055239964 -0.057140548 0.015462612 0.011317928 0.025298964 -0.02246494 -0.004137781 -0.012843058 -0.01231905 -0.027017405 -0.028352423 0.0056266035 0.019854767 0.0065484797 0.027100613 -0.013402458 -0.019734073 0.046122942 -0.0055430215 -0.025415875 -0.020725338 -0.05197468 0.0069988924 -0.019375348 -0.0055211587 0.007456677 0.018057832 0.002157914 -0.026509263 -0.018189557 0.007681759 0.010149182 0.014116005 -0.019448921 -0.014753237 0.007898305 -0.011499572 0.0027122998 0.013544984 0.0056989617 -0.03946582 0.015307127 0.010366315 0.0052034757 -0.003949716 -0.022337358 -0.028710004 0.027338013 0.020343907 0.01208769 -0.045021407 0.032236293 -0.02435679 0.013260839 0.022149079 -0.0075173336 0.037693024 0.007245784 0.014104845 -0.018053936 -0.03118794 0.015363886 -0.01898194 -0.007935378 -0.03372254 0.02915327 -0.01900347 -0.003940416 0.0084846355 0.035438944 0.039671652 0.008216668 0.025269486 0.022542628 -0.004606247 0.0026646024 0.050290596 0.022092547 0.015594451 -0.020799825 0.013451763 -0.011682678
선진 -0.011466982 0.023131918 0.011761247 0.0012601932 0.005799944 -0.044184 0.003482134 0.04206262 -0.029124387 -0.009299071 -0.0037491107 -0.02264631 0.009233279 0.020327222 0.016012741 -0.013432495 0.0017909238 -0.013905173 -0.010327634 -0.053663563 0.0161088 4.4494933e-05 0.018066928 -0.013320161 -0.014322367 -0.0066225952 -0.017716486 -0.005334707 -0.027437974 -0.00046401704 0.024913393 0.0018372609 0.022524515 -0.009039737 -0.015340261 0.025851231 0.0041225753 -0.0077541927 -0.017054096 -0.036651324 0.0065012006 -0.004881869 -0.012953074 -0.0027788181 0.015816828 0.004287127 -0.012043981 -0.00038671773 0.0044204216 0.0141976 0.0049374844 -0.017681777 -0.016534923 -0.0023299227 0.00016347083 0.013227057 -0.004743072 0.0010752316 -0.03130777 0.0008266522 0.007918682 0.008629054 -0.000919339 -0.004516395 -0.019021405 0.0105985 0.01709015 0.015315858 -0.030100597 0.036100503 -0.019770965 0.0017603152 0.017417353 0.00212046 0.022150096 0.02167062 0.00014450075 -0.016777782 -0.026707662 0.0027579924 -0.00076949055 -0.010205717 -0.02650405 0.03301636 -0.02033826 0.0013923494 0.005777888 0.010602945 0.029875899 0.0035709122 0.03042269 0.0059000803 -0.0066467286 0.008372419 0.027485337 0.021145262 0.0039544827 -0.01327905 0.00076902006 -0.014202838
부문 -0.018114911 0.018446878 0.006083901 0.00038795802 -0.0026430162 -0.055041514 0.015688106 0.07210978 -0.023881901 -0.015699679 -0.0036746003 -0.025952673 -0.008279495 0.0150233675 0.0130349845 -0.024181416 0.0002695997 -0.031075198 -0.018456118 -0.052832846 0.015034124 0.012405167 0.029042702 -0.021326112 -0.010335923 -0.0077022607 -0.02209093 -0.029355368 -0.019223489 0.0087359445 0.015926015 0.0040996172 0.0186888 -0.017850338 -0.011989362 0.03755537 -0.0054665287 -0.027374757 -0.023366112 -0.045163438 0.00017327418 -0.016248796 -0.005578541 0.0009606053 0.034131184 0.011259392 -0.025474934 -0.009443785 0.019448273 0.016246181 0.0191855 -0.022766538 -0.011477631 0.0015661604 -0.012365837 0.00670756 0.004700053 -0.011468215 -0.032918464 0.017135793 0.008185567 0.0052013616 0.0026949986 -0.02626119 -0.026825862 0.021393266 0.02063567 0.021681646 -0.04350583 0.04085635 -0.014844964 -0.0046666623 0.019849537 -0.010030047 0.022401977 0.02097593 0.011869296 -0.012489145 -0.018899858 0.00920321 -0.015865557 0.0010673224 -0.037216842 0.027278695 -0.009731768 -0.006158005 0.0067618983 0.032283004 0.032782104 0.016797785 0.038348265 0.008216935 -0.008290924 -0.011870067 0.046166714 0.023466218 0.014621473 -0.025850082 -0.0029140706 -0.013303338
기술 -0.0080690645 0.0062610353 -0.0042872997 0.0023865604 -0.005584383 -0.044503916 0.018277928 0.05463519 -0.03011095 -0.0019361022 0.010575196 -0.018120898 -0.0031898038 0.019960139 -0.0008377297 -0.020456137 0.0054147365 -0.024080008 -0.017852765 -0.04122029 0.016671546 0.0045398287 0.009181182 -0.0054534012 -0.0071937027 -0.014546224 -0.0035273856 -0.018225873 -0.016121944 0.012214035 0.026496602 0.0055658063 0.02599616 -0.019604176 -0.009543775 0.029798293 0.0023706942 -0.008137614 -0.005860426 -0.042885628 0.01353863 -0.012934248 -0.006117177 0.0073647997 0.012011486 0.0031077072 -0.017297965 0.0005965889 0.0180745 0.004677133 -0.0015990126 -0.018465495 0.0012324438 -0.006505957 0.00027509814 0.009342525 0.0032781078 0.008014443 -0.015263318 0.020037286 0.01199834 -0.0044794567 0.0053235795 -0.023632428 -0.034594208 0.006441864 0.015597398 0.019468332 -0.039330844 0.024964783 -0.014309461 -0.0011374266 0.015332825 -0.00014445177 0.02679745 0.009660792 0.0021110226 -0.009959289 -0.022340631 0.011196077 -0.0015557833 0.0043224506 -0.028994268 0.018211382 -0.022148605 -0.006245234 0.0018497389 0.013204705 0.03251009 0.015447774 0.026566403 0.0124029135 0.0093481075 0.00372522 0.028804554 0.006421694 0.011756007 -0.012349773 0.012728265 -0.010473172
변화 -0.0072261393 0.023176536 0.012843551 -0.0033798725 0.008526769 -0.051106006 0.008884807 0.06913623 -0.04019208 -0.020782012 0.0040351464 -0.021899132 -0.001284186 0.021410026 0.014929981 -0.017498298 -0.0018872425 -0.01777162 -0.019312238 -0.06399975 0.016968621 0.0048417794 0.024487922 -0.01661653 -0.0102403015 -0.015337594 -0.02072677 -0.023525406 -0.019027626 0.018009642 0.013718677 -0.010972821 0.029015305 -0.024122365 -0.0072703166 0.048291918 -0.0063771424 -0.014574797 -0.0065186564 -0.047798693 0.0065295473 -0.022230754 -0.0015734206 0.0109008495 0.029005622 -0.004875508 -0.019259818 -0.011691776 0.016140694 0.01554855 0.011674568 -0.015322641 -0.016929703 0.009959966 -0.016747797 0.01207808 0.01246311 0.0021660128 -0.025310911 0.012172138 0.0073790736 0.015450629 -0.007119395 -0.013212606 -0.045894124 0.029866803 0.022901274 0.022601798 -0.039303 0.042338714 -0.018236661 -0.0012613692 0.020628186 -0.0054036523 0.028698206 0.00833791 0.0011310142 -0.0016904619 -0.016841987 0.016523167 -0.019865815 -0.0046485215 -0.036554195 0.04069728 -0.01702682 0.007546358 -0.007940864 0.023321467 0.044284906 0.01213722 0.025585096 0.006762598 0.0029516716 -0.01245977 0.048227277 0.022151208 0.013232208 -0.032816816 -0.0019898503 -0.010192965
개발 -0.008102486 0.017601363 -0.00070803455 0.011054306 -0.004970364 -0.039876644 0.022736171 0.056773797 -0.035864893 -0.0057447064 -0.0068079866 -0.032625515 0.01109341 0.003882885 0.0006088541 -0.024430022 0.007755253 -0.018051937 -0.015131627 -0.056291122 0.018676138 0.021325292 0.026600977 -0.010804075 -0.005237986 -0.0050999955 -0.010731857 -0.012459332 -0.021563116 0.011158712 0.017709203 -0.01003823 0.030779669 -0.01888057 -0.009759894 0.035748456 -0.001493398 -0.02577848 -0.009674153 -0.046461612 -0.003806899 -0.016581554 -0.0021449144 0.00893472 0.02046426 0.011114853 -0.02883905 -0.012367198 0.007889757 0.0024015976 0.016377872 -0.026796587 -0.018289138 -0.0057884776 -0.00267993 0.0087525975 0.0064971345 -0.007839192 -0.031743415 0.014348793 0.00064955896 -0.000106425505 -0.009715641 -0.014017866 -0.041585572 0.019468471 0.0140871955 0.023210084 -0.038978234 0.039125968 -0.020601401 -0.003128108 0.026214644 -0.004952899 0.022162544 0.011952108 0.015829355 -0.01836597 -0.02707834 0.010383634 -0.0142508 0.00565496 -0.026610343 0.02224474 -0.023316327 -0.00997881 -0.0097069545 0.017447265 0.03040237 0.006052053 0.026875103 0.0083006425 0.0022813503 0.0008901144 0.04618886 0.009802075 0.02041345 -0.016343588 0.0015386649 -0.014812201
보고 -0.017810931 0.011315974 0.013363169 0.011128317 0.0119773485 -0.052850734 0.021238595 0.060369086 -0.020427266 -0.020691788 0.0013959355 -0.033532068 -0.008285632 0.014591829 0.018284718 -0.012235182 -0.0028563505 -0.016731655 -0.0129152415 -0.041354895 0.0009605796 0.02114242 0.009424868 -0.017686047 -0.0074108206 -0.0069595664 -0.020610446 -0.018328262 -0.023217482 0.004152315 0.0261025 -0.00080945116 0.02990139 -0.00562541 -0.019024745 0.040893883 0.008171392 -0.014499869 -0.007027359 -0.045128155 0.008358477 -0.012787873 -0.0069831796 -0.004029231 0.022960803 0.008632982 -0.030576328 0.0012486767 0.018939108 0.007905651 0.0052066655 -0.017053064 -0.0029404778 0.008144171 -0.017273234 0.019484362 0.0046124617 -0.010169599 -0.019070808 0.018538684 0.007376085 0.014820403 -0.010776909 -0.02224574 -0.033281025 0.013932114 0.014104136 0.0141915465 -0.0465402 0.03476558 -0.010616654 0.0034516316 0.024057757 -0.0045330585 0.03324682 0.012461567 0.015033389 -0.010445316 -0.020154571 0.004992461 -0.0070145763 -0.00074768486 -0.02347795 0.038584262 -0.022806717 0.0105049955 -0.0006485778 0.020039413 0.030604292 -0.0020398006 0.025376456 0.0152131645 0.0071022594 0.0063203713 0.027112456 0.023689196 0.006451087 -0.020028261 0.0128706535 -0.0094003035
환경 -0.021100959 0.0074510253 0.007377343 0.0008495886 -0.0062038237 -0.035459537 0.01660492 0.052655976 -0.018859955 -0.0072938986 -0.008879846 -0.018047495 0.004906445 0.0028738035 0.005172048 -0.016458148 0.0027850547 -0.018257614 -0.013894366 -0.04506787 0.013246355 0.0091676125 0.015326469 -0.0074813785 -0.0115836505 -0.014458244 -0.0009235838 -0.025529854 -0.023220757 0.008236919 0.0100890575 -0.001378711 0.027352141 -0.013538439 -0.002431726 0.03184771 -0.003901035 -0.019777808 -0.012042672 -0.027985962 0.010984873 -0.006048038 -0.011997287 -0.004646351 0.02498511 0.0054690703 -0.012888856 -0.0061721317 0.021615734 -0.001523301 0.017609326 -0.023981838 -0.010358279 0.009988285 -0.019523164 0.014175693 -0.0020978057 -0.008473025 -0.022610448 0.01385836 7.232856e-05 0.013955959 -0.009871594 -0.014075484 -0.018451614 0.017559383 0.0075031137 0.016435865 -0.038177174 0.029107815 -0.008245388 0.011375927 0.024820533 -0.010470803 0.034051176 0.0074223285 0.013733791 -0.015671374 -0.027843827 0.0071371947 -0.020859454 -0.007576508 -0.0216946 0.025360005 -0.023619536 -0.006138432 -0.009180249 0.019341841 0.036712773 0.0066691367 0.03449822 0.0069705886 0.008681426 0.003415579 0.040153097 0.012399829 0.012511798 -0.018087162 -0.005399442 0.0027249346
경우 -0.018996872 0.027606262 0.009641887 0.0048445254 0.002494377 -0.05888233 0.019038424 0.06412763 -0.039236397 -0.017216807 -0.0014022315 -0.034712445 0.004896032 0.015481419 0.013069237 -0.027954131 -0.0012990477 -0.01662491 -0.003354131 -0.051253803 0.015655382 0.004961544 0.026338238 -0.019422168 -0.017652445 0.0010202795 -0.016046409 -0.028302247 -0.029377699 0.018041864 0.01969179 0.00087214826 0.023999922 -0.010814084 -0.012509419 0.030106308 -0.001351608 -0.013385116 -0.012019762 -0.049693182 0.011756111 -0.008110962 -0.00018481966 0.0029640356 0.014405723 0.00064460153 -0.01820353 -0.014600932 0.027298542 -0.0010558098 0.001679251 -0.02473093 -0.0043321797 -0.0038168218 -0.0036562902 0.0022609578 0.009795194 0.0012310243 -0.031389117 0.02465217 0.008489069 0.008256213 0.0012642574 -0.011724628 -0.031451173 0.029177211 0.016723048 0.0077247866 -0.046536293 0.034597598 -0.021877328 0.0034284447 0.029954478 -0.012031514 0.03563291 0.02058366 0.0063918345 -0.008792288 -0.019049563 0.0036986407 -0.011146751 0.004326417 -0.030462712 0.025037536 -0.025927389 -0.008938496 0.0014553509 0.030321293 0.04705015 0.007076397 0.031743728 0.017068816 -0.0092954 -0.013022828 0.044684913 0.00731598 0.013198167 -0.030332936 0.011911505 -0.011252675
인식 -0.0034406765 0.016533574 0.0013474658 -0.002257867 0.0045074583 -0.043958116 0.02122105 0.0582202 -0.018721795 -0.01823201 -0.005182396 -0.023982584 -0.00018008247 0.0047378712 0.0150345145 -0.010793409 -0.00067689293 -0.014930723 -0.0026758881 -0.043150224 0.016992573 0.008563834 0.007429448 -0.010524447 -0.01710332 0.0044149077 -0.019695815 -0.016443733 -0.023830509 0.012938618 0.023398349 -0.011613795 0.015126989 -0.011528668 -0.0070301783 0.036707856 0.00053944276 -0.018724436 -0.019101337 -0.030641297 -0.004339153 -0.009240665 -0.00958116 -0.005727672 0.026086032 0.0026677717 -0.028296689 -0.01604024 0.014526659 -0.00123199 0.011833283 -0.012214191 -0.004583951 -0.0021875955 -0.0020659496 0.0011273174 0.01206171 -0.0025959043 -0.026786879 0.015792716 0.00030121926 0.0019807697 -0.0054666847 -0.020447977 -0.027518414 0.010587518 0.01904085 0.0033613467 -0.037916824 0.02000879 -0.021560945 0.0034527953 0.008927622 -0.011575119 0.02717488 0.011766776 0.00867558 0.00036422396 -0.02942983 0.01407885 -0.019823465 0.002468788 -0.014918528 0.034871116 -0.02170443 0.00376529 -0.0100414185 0.019044314 0.026098533 -0.0021981227 0.029583996 0.0154049285 -0.003488037 -0.010411222 0.03539042 0.008711987 0.0042561605 -0.02510646 0.0021736517 0.0028399033
내부 -0.020115765 0.024457265 0.012890629 -0.0029809575 0.0019154773 -0.043782122 0.018047543 0.050834525 -0.027102614 -0.020941209 0.007917903 -0.034760486 -0.0077447654 0.012345327 0.01045482 -0.01810049 0.004206311 -0.015644953 -0.006921117 -0.040352177 0.0058297366 0.002868616 0.0070956573 -0.002158461 -0.007111509 -0.012290789 -0.004875116 -0.0075232796 -0.013471328 0.0032046817 0.013846775 -0.0058875154 0.013938173 -0.0069361078 -0.0056870063 0.027858295 0.009107409 -0.026757829 -0.0049846554 -0.04210518 0.0057850247 -0.015748184 -0.0026426706 0.010093165 0.0187527 -0.0016079091 -0.028299438 -0.0036894854 0.018826915 0.014234364 0.0039060407 -0.026122855 -0.0020147918 -0.0010241799 -0.0061784936 0.018940134 0.0011135755 6.948251e-06 -0.030117681 0.0057892073 -0.0025171465 0.0065527787 -0.010711114 -0.017863706 -0.031788234 0.023433125 0.016329149 0.019612575 -0.031752974 0.026663657 -0.018003156 0.013704585 0.025494486 -0.014562828 0.030626163 0.022193898 0.015603714 -0.016664049 -0.023788456 0.00994821 -0.009769346 -0.005571313 -0.027423875 0.03413181 -0.007325271 -0.00015847528 -0.007673451 0.016788984 0.027840305 0.0109556625 0.02618623 0.009094209 -0.009452388 -0.004314596 0.04051458 0.019898402 0.01815125 -0.025154363 0.014146172 -0.00632304
업무 -0.012448874 0.02249148 -0.0005064654 0.008172311 0.012819698 -0.035578255 0.01817857 0.05337389 -0.025068525 -0.01865003 0.0021711492 -0.023115508 -0.0062849955 0.012497116 0.012923407 -0.02417191 0.0057550413 -0.008748702 -0.01692076 -0.042664368 0.00042865027 0.0029909797 0.021593686 -0.017505804 -0.009029911 -0.013860113 -0.01881176 -0.022597222 -0.020238146 0.011480108 0.010046302 -0.0114297625 0.016848376 -0.013508217 -0.01733644 0.027782822 0.0059171845 -0.014995252 -0.004342985 -0.031316645 0.0021151057 -0.009831378 0.0029425472 0.00467925 0.021032616 0.0047002556 -0.028217284 -0.0008505104 0.019196918 0.0072813835 0.016719682 -0.021458963 -0.005514774 -0.005051016 -0.019306583 0.012172894 0.00957109 0.004244523 -0.034339756 0.016976096 0.0053737517 0.010445582 -0.0036273738 -0.0089039 -0.020442674 0.007025881 0.0040252465 0.020281233 -0.034643568 0.019795148 -0.016003825 0.0051054284 0.025843633 -0.0073210504 0.023833096 0.005507677 -0.0019080668 -0.0069226474 -0.020982113 0.0005618817 -0.010959366 -0.012666937 -0.024667474 0.030569615 -0.012070633 0.008530958 0.0048287953 0.019332523 0.03711788 0.012775522 0.0337612 0.020613542 0.0054966314 0.002401701 0.039265033 0.011295402 0.007423344 -0.0122384885 0.006095184 -0.011945843
체계 -0.013567323 0.009887159 0.015060647 0.0048929476 0.0070375 -0.030954948 0.021765532 0.04197175 -0.02842668 -0.014084583 -0.0031539432 -0.032732524 0.00025255623 0.0011542611 0.016667744 -0.019712135 -0.0027030502 -0.025252283 -0.010808926 -0.053887222 0.009049861 0.015208057 0.01069391 -0.001493387 -0.00987369 -0.012468916 -0.013725836 -0.017985443 -0.026941901 -0.0005605553 0.013050805 -0.0047105025 0.0233782 -0.018489849 -0.015595482 0.03161281 8.1492966e-05 -0.01399304 -0.012614093 -0.029390942 0.011582824 -0.0200176 -0.0019360983 0.008186522 0.017938545 0.009727865 -0.023720324 -0.011060178 0.0056171995 0.016254146 -0.0018066976 -0.01809131 -0.00817531 -0.0014626947 -0.00014192951 0.0026591332 -0.003347837 0.007807002 -0.03249199 0.021309063 -0.0017867937 0.011300705 -0.0031521546 -0.017636344 -0.034165382 0.008918832 0.020425763 0.018758358 -0.031996828 0.034153502 -0.007745262 0.007899842 0.019588802 -0.014973116 0.03214717 0.0042729694 0.0023189574 -0.006049069 -0.014191883 -0.0017172319 -0.009736295 0.0027978807 -0.029564405 0.034830645 -0.018170394 0.010173161 -0.00790563 0.026393995 0.03945635 -0.0027646262 0.023854844 0.0029447984 0.008199596 0.00707725 0.024966642 0.013358116 0.01061849 -0.027840182 0.005128162 -0.015971271
개별 -0.011221527 0.008672785 0.012376982 0.009348926 0.0009176758 -0.04592534 0.005405357 0.057490904 -0.02154257 -0.0027932797 0.0043466045 -0.028864028 0.0040842677 0.019807143 0.016336918 -0.0102488585 -0.0046282 -0.026006209 -0.0009878757 -0.0561042 0.012689643 0.01833467 0.011950326 -0.0036483651 -0.016908364 0.00036933005 -0.005722416 -0.01299067 -0.030598635 0.019458244 0.027670497 -0.0049372963 0.025067994 -0.0063182227 -0.0133085 0.039035942 -0.0018862637 -0.021127874 -0.012706434 -0.042394128 0.0029288265 -0.022029975 -0.002979536 0.011334392 0.025254387 0.00949586 -0.024335317 -0.0020067117 0.008238811 0.0024148738 0.018751945 -0.01067924 -0.013458998 -0.0021199707 -0.0035112004 0.013361032 0.012035031 -0.008680801 -0.027704412 0.012065786 0.0034648695 0.009150388 -0.010434041 -0.010850555 -0.032824773 0.02561546 0.014232785 0.022868661 -0.036992393 0.03602514 -0.020201484 -0.0046210196 0.018010566 -0.008610499 0.036004845 0.018650664 0.0003953953 -0.0005302074 -0.021236716 -0.00094044773 -0.007037586 -0.0060646934 -0.032544404 0.036948144 -0.006891376 0.0092469845 -0.0011594683 0.02977137 0.03893122 0.00026070038 0.03543322 0.008091676 -0.009746081 0.0060817013 0.029019415 0.021288302 0.006011499 -0.013135748 -0.0015431859 -0.0023080546
중심 -0.004237741 0.020647971 0.004490474 -0.0031438062 -0.0066597858 -0.036965407 0.023316486 0.04724215 -0.019253016 -0.004041178 -0.008222431 -0.023476677 -0.006533794 0.007462143 0.008643181 -0.024928635 -0.00077173405 -0.025905268 -0.015605297 -0.055192463 0.019636242 0.01945457 0.015549735 -0.013029407 -0.0015997819 -0.004766967 -0.02078941 -0.023942916 -0.020797051 0.01860087 0.022507792 0.0066604726 0.027655229 -0.012281537 -0.002675333 0.0429389 0.010662297 -0.009054574 -0.021101115 -0.034076624 -0.004347199 -0.021273127 -0.015403345 0.0061494648 0.0200439 -0.0029595443 -0.014057435 0.0015230128 0.01920684 0.0154897375 0.0039001207 -0.022653027 -0.004421481 0.00052748976 -0.018399708 0.013451771 0.0015845225 -0.0068693603 -0.024255322 0.020189067 0.009762511 0.0069741514 0.0059437263 -0.012444511 -0.022680862 0.015513155 0.017310021 0.020553282 -0.04572037 0.03601976 -0.010542983 0.010421451 0.017182529 -0.008544026 0.02039432 0.01001992 0.003514375 -0.013643142 -0.020311493 0.016653705 -0.007465316 -0.011668857 -0.030320074 0.024310697 -0.009698339 -0.0095570125 0.0050803744 0.024802845 0.031093882 0.016595088 0.03412972 0.0130160665 0.005635215 -0.0117633045 0.025323909 0.010604922 0.023085456 -0.018596929 0.010600709 -0.013542026
설계 -0.006978384 0.014312163 0.0044047046 -0.0025366307 0.008260419 -0.04421327 0.01883276 0.04883907 -0.023463784 -0.013464532 -0.0066880733 -0.02753124 -0.0050623417 0.013365137 0.0005954065 -0.016332917 -0.0068936334 -0.018224474 -0.0074350326 -0.04854636 0.011581255 0.01922294 0.01694217 -0.006035652 -0.011498443 -0.006921364 -0.0069068903 -0.011869941 -0.009047115 0.0071920766 0.023181874 0.0037151147 0.020076232 -0.0025501132 -0.014303758 0.023703564 0.009398902 -0.006385245 -0.006396512 -0.035810597 0.010583559 -0.008255418 -0.006173479 0.012096334 0.021215022 0.0073788604 -0.016371451 -0.014532693 0.009105594 0.009130139 0.0006624219 -0.005602362 0.00086052367 -0.006946215 -0.015111667 0.0015356676 0.0039445157 -0.004196922 -0.025003774 0.009354762 0.0063712657 0.01570295 -0.0076704593 -0.021314709 -0.02010701 0.0069795814 0.01948529 0.014825301 -0.037903834 0.017069137 -0.020010227 0.0061956914 0.018501034 -0.0020189325 0.021658238 0.011976141 0.008582097 -0.008931156 -0.025379414 0.0064491346 -0.0066734524 -0.0058632386 -0.021792242 0.020141337 -0.0038737564 -0.003270867 0.008750385 0.013851155 0.017847251 -0.0007114048 0.016470978 0.011814763 0.0062607503 0.0003296551 0.037711114 0.011867872 0.017291736 -0.018034266 0.0023333603 0.0012352259
금리 -0.011606441 0.024961032 -0.001725592 -0.00722543 0.0027759513 -0.042448137 0.011737961 0.049760766 -0.029217616 -0.01908823 0.009292406 -0.02833113 -0.0014135577 0.009328344 0.0066146306 -0.027239695 0.0018606076 -0.019478248 0.00073797826 -0.05557904 0.0042427117 0.008543396 0.017791053 -0.016423717 -0.014619484 -0.014003666 -0.005850558 -0.024690554 -0.024700316 0.009860125 0.020079864 -0.013076343 0.028972903 -0.013697676 -0.010952422 0.023967676 -0.006344395 -0.014903142 -0.007271517 -0.03365521 0.009481405 -0.019884774 -0.0072900294 -0.00046183335 0.018318577 0.007909366 -0.018201707 -0.014463943 0.017803654 0.013604977 0.0019565872 -0.012507794 -0.012955627 0.012731 -0.0060791997 0.012929183 0.0037147247 -0.010385326 -0.017329115 0.010353502 0.010558305 0.010653178 -0.011595339 -0.015490429 -0.026074596 0.013759206 0.024474908 0.008145909 -0.041986726 0.033554252 -0.015902348 -0.003139401 0.02039341 0.00013115651 0.01940679 0.00910455 -0.0015281793 -0.006809346 -0.026013399 0.016432488 -0.011671426 -0.002105124 -0.025956495 0.034462776 -0.014388229 -0.007960518 -0.0090228 0.021289777 0.04045293 0.009835618 0.020177417 0.004130306 -0.010461564 0.0011696012 0.02349835 0.016861629 0.015556698 -0.022435559 -0.0051724208 -0.0011345785
활용 -0.016106106 0.0089517925 -0.00069773506 0.010523867 0.005498771 -0.054260734 0.015114927 0.0626539 -0.036801144 -0.019741382 7.939357e-05 -0.038111065 0.0014487195 0.0141131515 0.017260801 -0.018830853 0.0061566257 -0.015839959 -0.0136180855 -0.046378102 0.010404425 0.011291168 0.0070769475 -0.011084218 -0.0030308652 -0.0043349136 -0.02117981 -0.021049183 -0.030268306 0.017569032 0.014782888 0.0016465568 0.017420743 -0.020368436 -0.021222824 0.04145564 -0.0066497503 -0.02708643 -0.020090554 -0.04595886 0.0002843152 -0.012998066 -0.0005011974 0.0013591003 0.016840555 0.004878194 -0.016557306 -0.013229479 0.011078595 0.013215617 0.015586188 -0.026043596 -0.0010797463 -0.006132788 -0.019610243 0.0059495554 0.007568922 -0.0013446369 -0.026338853 0.020743147 0.008463767 0.003971811 -0.009807023 -0.025537744 -0.03329866 0.028732685 0.008484432 0.01893077 -0.035500128 0.029032763 -0.021264812 -0.0006653089 0.015711136 -0.013092435 0.033948153 0.007436065 0.00375098 -0.005054651 -0.023824891 0.0013572637 -0.018714221 -0.0006071677 -0.022965282 0.02880068 -0.01625999 0.0024407832 -0.0004150398 0.02154392 0.04196845 -0.00023018365 0.03524051 0.0032830199 -0.002168505 0.0038319663 0.034301627 0.022065742 0.02110953 -0.031939533 0.0049416004 -0.012096892
구성 -0.023958113 0.017977217 0.01378939 0.011188378 -0.0016019067 -0.049592134 0.011148182 0.05944862 -0.025860552 -0.023082608 0.0037170416 -0.03814894 0.001366767 0.01757894 0.0030269977 -0.019652408 0.0024364984 -0.029076183 -0.0117697865 -0.050767355 0.0014670576 0.005691471 0.01606852 -0.0031250396 -0.007887774 0.0032533784 -0.02088869 -0.008728881 -0.029330237 0.004552356 0.014089779 -0.001766026 0.020836826 -0.005892854 -0.014013912 0.040537428 0.00848796 -0.03043439 -0.015392291 -0.047183298 -0.0045337686 -0.011504126 -0.0052319556 0.00043738325 0.02085071 -0.0034876026 -0.02560841 -0.006500381 0.024963796 0.015941609 0.0055357874 -0.014782909 -0.0124347275 -0.00034513764 -0.01613352 0.0053793346 0.009361298 -0.009950094 -0.03806314 0.010675556 0.01129902 0.009300945 0.0022167964 -0.008654412 -0.040055748 0.014438436 0.02481816 0.02081874 -0.03525006 0.04324158 -0.005017296 0.0021716142 0.02208977 -0.0012491897 0.03741963 0.025493056 -0.0017088533 -0.014756921 -0.018449156 0.010647821 -0.014361274 0.0035904371 -0.019322807 0.023514515 -0.017832804 -0.008194167 0.0058092163 0.027343635 0.035580758 0.0100830225 0.03639992 0.022034327 0.006894094 0.0006573322 0.040642537 0.02372761 0.016773406 -0.0244898 -0.0043341317 -0.004391696
금융기관 -0.02008294 0.020404236 -0.0010947596 -5.6088767e-05 0.0037926463 -0.035103276 0.0029388533 0.0454787 -0.026633004 -0.018098174 0.0047581065 -0.02129902 0.0071670255 0.0024394009 0.0069413227 -0.014527822 0.008826795 -0.024330692 -0.001171747 -0.04791832 -0.00038269776 0.009496303 0.009436514 -0.012225764 -0.011993348 -0.00093304063 -0.018535534 -0.011960916 -0.013793801 0.008182044 0.015088573 0.004133462 0.0068643265 -0.019179171 -0.005131413 0.03611304 -0.0058743376 -0.023096815 -0.010152662 -0.038972657 0.0051767793 -0.0018495789 -0.011753292 -0.00522016 0.025362834 0.0022433405 -0.019808568 -0.008002936 0.0029672422 0.0018097588 0.0022818097 -0.012822995 -0.0057962257 0.010620789 -0.0018574249 0.0068337303 -0.0061821607 0.0014806811 -0.027973315 0.019738462 0.0061463066 0.003712378 0.0043471 -0.01610298 -0.02724974 0.012793735 0.02082989 0.016846348 -0.027160661 0.028398199 -0.012485966 0.012312275 0.007610788 -0.00795606 0.015343529 0.020007025 0.0016299225 -0.009161175 -0.009392961 -0.0033295827 -0.01303506 -0.0007389805 -0.024306443 0.030594986 -0.010118535 -0.005486122 0.0033526279 0.025089769 0.028121175 0.012552625 0.013931364 0.0058027753 0.010776849 0.0035823754 0.029055163 0.007481257 0.01575637 -0.015086981 0.013007133 -0.00565278
구축 -0.0054880683 0.01126734 -0.0017620794 0.00018546556 0.0062713814 -0.044169836 0.021498771 0.044057492 -0.034355465 -0.003749403 0.007940845 -0.029305266 -0.0031035948 0.008140978 0.007041217 -0.009164422 0.0052029197 -0.020520661 -0.01239018 -0.05126446 6.874639e-05 0.017533528 0.0068343575 -0.013744259 -0.015778514 0.0031494244 -0.0055161896 -0.017142816 -0.01827525 0.008164175 0.029907215 -0.0075193243 0.025971508 -0.016536193 -0.0021044372 0.044069022 0.007796079 -0.019037496 -0.013640024 -0.04712663 0.013445278 -0.02200764 -0.013736883 0.008418528 0.018580668 0.01153583 -0.027976612 0.0023989857 0.016978862 -0.0008611327 0.012310304 -0.021564197 -0.0019721494 0.009858504 -0.020000296 0.016948663 0.010426632 0.0045983596 -0.035283063 0.0065269177 -0.0050355373 0.011840092 -0.006639674 -0.011426494 -0.024714513 0.02508923 0.017356142 0.012925132 -0.03523836 0.033780523 -0.021779062 -0.0018664304 0.018302802 -0.0007455395 0.02571353 0.0041728425 0.0054606237 -0.0012052137 -0.015286319 0.01187924 -0.017035201 -0.0077557922 -0.02561341 0.021676347 -0.023040479 -0.0010828053 0.0003099011 0.026703823 0.037839282 0.015869038 0.019565243 0.021701235 -0.0027120656 -0.0018108671 0.030682035 0.00949018 0.012997052 -0.030234741 0.014154742 -0.0024889116
산업 -0.016478594 0.019313963 0.01496153 -0.0041868966 0.0076045212 -0.04139653 0.017874798 0.05113645 -0.035376493 -0.00568511 -0.00032774135 -0.034833055 0.0015821196 0.005211544 0.015806217 -0.024762923 0.0019766847 -0.01901667 -0.013088779 -0.053299498 0.016729869 0.012800508 0.0058738505 -0.011117343 -0.01878769 -0.009709095 -0.0066103595 -0.012609823 -0.0285865 0.012495166 0.025511377 -0.011174002 0.018420758 -0.0154290795 -0.020952798 0.03678579 0.009365264 -0.016899072 -0.009811646 -0.038581703 0.0032697734 -0.02016222 -0.0071344073 0.009644116 0.02396845 0.004406392 -0.012290333 -0.004151263 0.0073454594 0.0152587565 0.018097362 -0.026424041 -0.001315363 -0.003430042 -0.01152864 0.015441786 -0.0007302354 -0.010174889 -0.0349829 0.0033392506 -0.0038175725 0.016612133 -0.00019368032 -0.024966946 -0.021257477 0.02462602 0.023673698 0.023763098 -0.045287836 0.028878706 -0.010471746 0.0065313503 0.02425113 -0.013980495 0.030970968 0.02482452 -0.002871978 -0.00073610176 -0.017998593 0.004482562 -0.015003022 -0.012653526 -0.031160418 0.033431884 -0.01787488 0.010280793 -0.010338563 0.014964777 0.041007977 0.015343008 0.029890789 0.019340636 0.0070419437 -0.008945327 0.043365717 0.0074205473 0.011447306 -0.028225511 0.0113849845 -0.011632964
수립 -0.009826868 0.01367736 0.0048967926 -0.004315754 -0.0027537644 -0.04177751 0.014395898 0.048960682 -0.026942799 -0.008715893 -0.004697621 -0.013326632 -0.00071711023 0.0030016636 0.0046103015 -0.008392028 0.0027398616 -0.022313401 -0.015969079 -0.05054876 0.0047987914 0.017455649 0.006066902 -0.007975935 -0.007481915 -0.0016928879 -0.01894241 -0.0071015507 -0.023109058 0.01462032 0.007890552 0.0022846058 0.010201056 -0.014442879 -0.011691216 0.027660498 0.0013624673 -0.017872369 -0.0060920543 -0.03674882 5.4059354e-05 -0.0186937 0.0023579802 0.0067183645 0.027807754 0.00853533 -0.023067513 0.0019804856 0.0067380103 0.010141542 0.0045912126 -0.014718933 -0.0040965495 0.0004672225 -0.014903057 0.0074361996 0.0053685163 0.0046055284 -0.030468086 0.016974734 -0.00079946115 -0.0016388415 -0.008225408 -0.01261346 -0.01819098 0.02348372 0.02300235 0.019409195 -0.035660725 0.025387038 -0.002738469 0.010971701 0.023237405 0.00159788 0.02503985 0.014704526 -0.0024891268 -0.0001921035 -0.009659349 0.00046677273 -0.010485904 0.0051562474 -0.017687991 0.03236759 -0.0051213456 -0.0017309241 0.007624258 0.025527364 0.028950015 0.006830692 0.033979658 0.017075527 -0.006233848 -0.0055457694 0.028490677 0.015297675 0.014236348 -0.02932967 0.0066059437 0.0036999935
지표 -0.0091220075 0.018303351 0.007376587 0.009852949 0.011677613 -0.031548966 0.010185253 0.046858586 -0.028789949 -0.0011639582 -0.0028662207 -0.010824382 -0.008804411 0.0073298933 0.015389567 -0.019325353 0.0013037031 -0.009828393 0.0016799861 -0.040411502 0.0008846161 0.019401541 0.0028193924 -0.0068756463 -0.0009189343 -0.013118578 -0.01549066 -0.023465933 -0.018715823 0.013740077 0.0074333516 -0.006148536 0.026036149 -0.015112398 -0.00607302 0.032001454 -0.0019440732 -0.02127116 -0.0011626447 -0.0338165 0.012440849 -0.0138844615 -0.002069124 0.0075878133 0.017438842 0.00717986 -0.022297697 0.0029975898 0.01115423 0.0016452245 0.011999812 -0.0032342842 -0.013581712 0.0035391331 -0.004615004 0.005772936 0.004531486 0.0076603326 -0.014501623 0.004566399 -0.00027581927 0.014882214 -0.0028562103 -0.022623703 -0.025260447 0.007022576 0.01323044 0.011828241 -0.03441043 0.02092398 -0.0013036341 0.008014696 0.01801764 -0.0027623556 0.030043842 0.0062217526 0.011565981 -0.007877399 -0.025647586 -0.0025719483 -0.012151711 0.0050208303 -0.017022677 0.013569569 -0.011090016 -0.003428864 -0.005943311 0.026033688 0.03424187 0.0064569064 0.024677815 0.010400064 -0.009801021 0.00092778145 0.03565342 0.014768564 0.014321515 -0.021970075 0.006421437 -0.013678161
위원회 -0.010620573 0.020729791 0.0062615136 0.0011011844 0.0062474576 -0.042973254 0.018403336 0.06628682 -0.024070863 -0.011088685 -0.0023996471 -0.033802807 -0.009007202 0.009551862 0.012260292 -0.011920522 0.0045411554 -0.024737071 -0.0054729343 -0.05709655 0.010091372 0.020569753 0.024918536 -0.011967048 -0.015372786 -0.0029763202 -0.0022612503 -0.009545804 -0.025836527 0.018084448 0.030456584 -0.013097034 0.031392146 -0.013623862 -0.017900309 0.040916137 0.011837274 -0.027576618 -0.006325911 -0.048098065 -0.003562753 -0.009439144 -0.011838837 0.008319611 0.029581457 0.01303652 -0.015646964 -0.016406495 0.019789781 -0.00087528524 0.008716941 -0.008511374 -0.014169809 0.0074061435 -0.01768923 0.003564585 0.013437662 0.0008297664 -0.02171517 0.016452653 0.0055486592 0.01133556 -0.011762585 -0.009950027 -0.036716215 0.023105724 0.01101331 0.016506484 -0.035317313 0.031144306 -0.021291748 -0.0016422168 0.010475735 0.0033961968 0.023754293 0.013959842 -0.0022243438 -0.0134507725 -0.028493678 0.012772466 -0.007899681 -0.0006450537 -0.015754653 0.03263689 -0.004895918 0.0075711035 0.0016670643 0.026043162 0.028441578 0.0052311625 0.034597233 0.004622302 0.0032433062 -0.010327997 0.047512244 0.015033145 0.01694024 -0.029167084 0.01151407 -0.014469162
다음 -0.021741021 0.024069896 0.0031979352 0.00067834096 0.008804618 -0.037483536 0.021268157 0.0592239 -0.019708695 -0.020777943 0.0063984585 -0.016805891 -0.003234457 0.012970334 0.0040229396 -0.021273503 0.01299601 -0.018793859 -0.0050841183 -0.05480662 0.015533757 0.00763449 0.010313225 -0.00785328 0.0011903369 -0.012191588 -0.008627172 -0.017589865 -0.029443366 0.0059769265 0.011730301 0.00275837 0.017407129 -0.017985757 -0.010821614 0.039135676 0.012093044 -0.029068958 -0.01240414 -0.039500963 0.0012509635 -0.0145677505 0.0010024922 0.0006099882 0.030032158 0.0037002943 -0.021494383 0.00033911172 0.022215556 0.007951451 0.008059849 -0.00992268 -0.012039036 0.008086004 -0.01081107 0.0043688253 0.011661572 -0.0059251753 -0.025233388 0.0062207975 0.00665586 0.012192751 0.0018941511 -0.023773206 -0.03566103 0.024141008 0.018747741 0.015206028 -0.042325135 0.029751763 -0.022091998 0.005769408 0.013810512 -0.0047686063 0.02998549 0.016954122 -0.00075898593 -0.0075965165 -0.028081993 0.004299946 -0.010510351 0.003822665 -0.029598791 0.03016501 -0.005927584 0.009948018 0.0047801477 0.013643606 0.037833933 0.015984697 0.030675434 0.014584429 -0.0017607412 0.00077124056 0.03861393 0.02264829 0.010329748 -0.03146342 0.011633908 -0.0126957325
년대 -0.013173782 0.016593318 0.0048153745 -0.002562915 0.003984987 -0.047399566 0.014475224 0.0416586 -0.028993329 -0.0056905746 0.0024012611 -0.019300409 0.001548393 0.0009711122 0.017492943 -0.0193465 0.0014561656 -0.009227534 -0.0075486824 -0.04056953 0.010581285 0.011738744 0.020656075 8.451169e-05 -0.007885931 -0.009364769 -0.0061779744 -0.022750394 -0.010939331 0.01198742 0.02348633 -4.481578e-05 0.01700587 -0.010019965 -0.01557936 0.039622247 0.007438217 -0.013109681 -0.015625918 -0.042080693 0.011346845 -0.0087175695 -0.010721714 -0.0069097606 0.01427671 0.004014688 -0.026776707 -0.005973733 0.016667327 -0.0032184166 0.007407705 -0.020712439 -0.011148616 0.0024357007 -0.020029727 0.0059224847 -0.003023038 -0.009115845 -0.022564325 0.01384794 0.012526019 0.015106512 -0.009487123 -0.022933282 -0.0185843 0.020478748 0.021138798 0.009338208 -0.037103817 0.022945538 -0.019587005 0.009805322 0.0130735105 0.0042528645 0.016842095 0.022627007 0.00043834094 0.0015045796 -0.024459144 -0.00022010828 -0.0032279268 -0.014572062 -0.02890503 0.029799543 -0.02269962 0.0050713797 0.0022316629 0.011572027 0.033343494 0.008103029 0.031852204 0.013385349 -0.004693682 -0.004367386 0.03761966 0.005065069 0.022113675 -0.023120318 -0.0005848604 -0.0104343295
방법 -0.008937368 0.0045641116 0.0086986255 -0.0034176356 0.0126293115 -0.040211916 0.004443828 0.047827084 -0.011756291 -0.0069657774 -0.0013663302 -0.018212566 -0.008197555 0.004834714 0.0015847161 -0.0134464195 -0.0025360833 -0.02323049 -0.013925412 -0.03609065 0.010261028 0.01772929 0.0150233265 -0.0036461442 -0.0034596932 -0.00035541807 -0.01471916 -0.012193118 -0.018531742 0.013882682 0.010205475 -0.0037788139 0.021205688 -0.015410575 -0.01848126 0.034428924 0.00078882533 -0.016168334 -0.015810605 -0.023286056 0.004064773 -0.009844259 -0.005906312 0.0024379797 0.022777582 -0.0064003323 -0.014863063 -0.011797893 0.0220171 0.010931035 0.0018272945 -0.015587886 -0.01258336 0.011638643 0.00013281727 0.011471604 0.014237933 -0.0059450483 -0.02003837 0.0059525184 -0.006395982 0.0012297037 -0.0040976647 -0.019175056 -0.029735101 0.015522369 0.012971919 0.0032103276 -0.023483302 0.027938364 -0.020345485 0.002205475 0.007982615 0.002769552 0.020627476 0.0199344 0.010462845 -0.01142274 -0.027363649 0.00073116913 -0.0021946745 -0.0046660723 -0.019892966 0.023712518 -0.020362431 0.0044319145 -0.0101288585 0.027938198 0.020120466 0.0137301255 0.019830104 0.008066724 -0.0019110598 -0.001438858 0.030998085 0.013325356 0.011841654 -0.011312807 -0.00227363 -0.013511228
책임 -0.021974064 0.02410417 0.0044212476 -0.0029421574 0.008340449 -0.051468935 0.018251674 0.063137315 -0.018581886 -0.0146933375 0.0037693845 -0.02108658 0.010460139 0.009127554 0.009369657 -0.02277157 0.0011351625 -0.017776709 -0.006938078 -0.0559411 0.013910005 0.0056759967 0.011147418 -0.019960495 -0.00089246704 -0.0020499039 -0.014280611 -0.00800289 -0.020589253 0.0003532805 0.012584837 -0.0075780395 0.013913752 -0.0051318016 -0.0071960804 0.03750055 0.0013217032 -0.027764304 -0.0057896874 -0.04452175 0.0013146392 -0.01958166 -0.009106388 -0.007049292 0.024519572 -0.004066602 -0.013551069 -0.01489527 0.009807394 0.007846771 0.00020290076 -0.011376485 -0.012954038 0.004331348 -0.0032759903 0.0141990995 0.0050754086 0.0062689506 -0.028605297 0.01928471 0.009317842 -0.0012920421 -0.001307092 -0.025686055 -0.03196611 0.02627616 0.013577118 0.009475989 -0.03471386 0.039306372 -0.006581008 -0.0025489624 0.026296765 0.0019576363 0.020658087 0.0129625155 0.0059908703 -0.01867552 -0.02460278 0.01817143 -0.01558655 -0.012009849 -0.028155185 0.018864647 -0.012849012 0.0062734275 -0.0007411993 0.01807718 0.043950584 -0.0024201593 0.021783514 0.0022597362 0.009776101 -0.0047677252 0.030007921 0.0060036955 0.022861456 -0.025906343 -0.0008743638 -0.003186769
결정 -0.019398881 0.02381998 0.011577902 -0.0026938391 -0.00026512024 -0.03372543 0.00314066 0.048137326 -0.016857658 -0.003739059 -0.0085730795 -0.021585895 -0.006045776 0.01557685 0.016540686 -0.016140025 -0.004926567 -0.010727858 -0.0073086107 -0.038468294 0.0017940182 0.008767638 0.010441282 -0.0008576951 -0.014539356 -0.008970719 -0.011602854 -0.01705682 -0.012558234 0.008365831 0.013342433 -0.011617875 0.007390734 -0.0086239865 -0.010793608 0.019066324 0.009264108 -0.008710339 -0.0032913946 -0.034817684 0.0029835645 -0.0038061733 -0.012427638 -0.0047288737 0.008556454 0.0071765073 -0.026347633 -0.004308859 0.02107289 0.007920285 -0.0025145684 -0.0054142433 -0.0019084681 -0.005575787 -0.0033084406 0.017330214 0.010694076 -0.00633078 -0.01676837 0.005968522 -0.0053804116 0.009477194 -0.00787526 -0.014750451 -0.030182695 0.0066673006 0.011362846 0.012735984 -0.029084407 0.033738732 -0.0066289175 -0.006172877 0.0066585667 -0.006928342 0.01945763 0.005127728 0.0141231045 -0.0027819057 -0.025543526 0.012692173 -0.01248112 -0.010485704 -0.0194379 0.030465687 -0.017097265 -0.0033773414 -0.0039173854 0.023487084 0.033611275 -0.001554041 0.013721379 0.009590598 0.003968677 0.0008271261 0.032350726 0.011328068 0.010375844 -0.014902787 0.0037322543 -0.00019365398
모든 -0.013755869 0.026379269 0.002516369 0.004423764 0.0065665273 -0.049070645 0.024666963 0.059166092 -0.02024013 -0.013430464 0.0110196285 -0.021690572 -0.00025782062 0.015587464 0.013524194 -0.01092304 0.005564696 -0.017389378 -0.01205109 -0.05485934 0.0006750993 0.00904192 0.012835534 -0.008169012 -0.009007613 -0.0047685825 -0.006471956 -0.023889279 -0.0152164195 0.017744258 0.02596835 -0.0022814893 0.02101449 -0.0109227495 -0.019450154 0.029193224 0.0037244412 -0.019381333 -0.0075433403 -0.043838147 0.009114043 -0.017163353 -0.00012694852 1.5078198e-05 0.017108468 0.0056714406 -0.021465449 -0.009861394 0.011932134 0.015615098 -0.0005552654 -0.011570525 -0.011866401 0.013116223 -0.006863438 0.0132055655 0.0017527731 -0.0031826715 -0.03368369 0.010652206 0.010402957 -0.0023067861 -4.3408767e-05 -0.011947769 -0.022579307 0.013474718 0.02103766 0.004404071 -0.036363967 0.03971318 -0.008759654 -0.0010990013 0.016002536 -0.014059197 0.02683772 0.019193817 -0.0012022499 -0.0030653926 -0.0265444 0.014388314 -0.0070667495 -0.0017189075 -0.025108445 0.018726526 -0.019877482 0.0009971112 -0.011759465 0.03181039 0.037603546 0.006267588 0.035925638 0.008084045 0.0016272872 -0.0018362767 0.042370714 0.016738309 0.011846366 -0.02738356 -0.003132959 -0.0016885787
영향 -0.005530474 0.020609336 0.011209382 -0.008123344 0.01250726 -0.04105687 0.012679643 0.041847367 -0.012120805 -0.017937819 0.00388992 -0.026417905 0.00043738855 0.016474364 -0.0033729959 -0.0042227856 -0.0058478434 -0.0074232044 -0.0151384 -0.045550037 -0.0006563018 0.014404813 0.00926222 -0.0066284584 -0.016077364 0.005166599 -0.0063013914 -0.017459992 -0.020467514 0.016780006 0.01861818 -0.0126550915 0.019977072 -0.015795236 -0.0073672454 0.035234425 0.0002907604 -0.01478583 -0.0030712811 -0.035827197 0.0068393406 -0.006929502 -0.014944866 -0.0020254962 0.024178872 0.0044693914 -0.0063906475 -0.007545344 0.020669412 -0.002373568 0.011673208 -0.021924505 -0.0042421063 0.011519123 -0.010571789 0.015976986 -0.0054660714 -0.002365018 -0.017742041 0.0050348616 0.009614989 -0.0019973863 -0.003386031 -0.0031111718 -0.015234015 0.014105766 0.022047404 0.0010084752 -0.031683464 0.027071647 -0.012063302 0.008411226 0.022468936 -0.008621637 0.018330943 0.02037096 -0.0018899884 -0.015391639 -0.017698687 -0.0014829794 -0.00969166 -0.0010186472 -0.026183315 0.021245925 -0.016013803 -0.0025086477 0.0007567905 0.021111306 0.024110084 0.014181365 0.021380082 0.016590582 0.0035546864 0.0021861913 0.037221417 0.006447706 0.011160986 -0.0217199 0.0080176955 -0.011468967
